L -0.004920481 0.0072560147 -0.11926518 -0.24360207 0.0407093 -0.057658426 0.0016340376 -0.09192063 -0.099188335 -0.01001289 0.099983275 0.088992365 -0.06763815 0.059600245 0.0064991107 0.014194059 -0.023847915 0.013492232 -0.02425895 -0.07045136 0.07553003 0.07994763 0.01595427 0.019472001 -0.12769105 0.0531769 -0.0910338 0.0488238 0.05826216 0.14164194 -0.0950272 0.07852545 0.07396612 -0.06699104 -0.047068544 0.044070467 0.040430106 0.05669001 -0.2045433 -0.08928026 0.1164966 0.10388361 0.028202413 -0.01172963 0.039788503 -0.083837174 0.15220205 0.0175578 0.04578905 0.10502228 0.025483988 -0.18118018 -0.0054223994 0.0130310105 0.08924712 0.03616271 -0.060116533 -0.16766872 -0.12220171 0.017545156 -0.04303934 -0.09677587 0.0758134 -0.122570276 -0.16323374 -0.012170545 -0.10434119 -0.078130685 0.12710804 -0.09200621 -0.2635436 0.19156112 -0.044540185 -0.2585023 0.0732065 -0.026520647 -0.08329097 0.07394082 -0.1260346 0.100846194 -0.036114413 0.2712102 0.069941506 0.10501919 0.072537005 -0.07454112 -0.021448867 -0.19076528 0.16416703 -0.12481932 0.09072197 -0.11205586 0.0022436858 -0.06851288 -0.050396394 0.14647928 0.27148393 0.16122591 0.0104025975 -0.0048543448 -0.091895394 0.10747042 0.036691405 0.009882351 -0.037656672 -0.19348519 0.022396563 -0.07633917 -0.020985264 0.042509 -0.09115034 -0.047372483 0.021084342 0.012241807 0.012375822 -0.06930051 -0.03417466 0.075287715 0.019857971 -0.2965419 0.09606142 -0.020704692 0.025625333 0.0063879946 0.1446993 0.014392706 0.17448428 -0.096096374 -0.26635814 0.039080504 -0.084171414 0.05804295 0.09800423 0.099488445 -0.09367783 0.07316756 0.03822073 0.07500163 -0.018514112 -0.053937633 -0.011015685 -0.037287217 -0.09825928 -0.43516073 0.0017207098 -0.088950574 0.08174898 0.07529967 0.021250581 0.06209045 -0.03822818 0.14036366 -0.039777163 0.022091197 -0.28092086 0.04589863 -0.1530524 -0.085457824 -0.05468776 0.04728041 -0.01578192 0.059617378 0.15709054 -0.03382578 -0.020329172 -0.07204273 -0.045752805 0.008590161 -0.08021621 0.008288941 -0.25490278 0.011142236 -0.13276905 0.030607859 -0.02501984 0.09634178 0.11122701 -0.08053984 -0.025997294 0.064165674 -0.036956485 -0.14133757 0.041069712 -0.037121184 -0.012492146 0.11012993 0.042621396 0.067343436 0.1271253 -0.06879194 -0.020342985 -0.21926932 0.03022836 7.46748e-05 -0.016905218 0.06816938 0.1367356 0.09191892 -0.06176865 -0.0503641 -0.033320155 0.1566599 0.10248349 -0.012737484 0.09253814 0.006820446 -0.023253541 0.08964157 -0.183605 -0.13337472 -0.08692921 0.13237086 -0.09658301 -0.029590536 -0.14764875 0.003075155 0.07202589 0.21132758 -0.13314444 0.095219724 0.084060974 -0.018427402 0.14153327 -0.05947886 -0.23202688 0.09976233 0.06389533 0.14738174 -0.06954921 -0.021299943 -0.048536543 -0.03557128 0.06627891 -0.06329627 -0.14866713 0.11537007 0.14622018 -0.21221091 -0.0046027065 0.010038666 -0.052841038 0.054509502 -0.043807026 0.04936079 0.097242564 -0.05924519 -0.04234844 0.01940303 0.14553012 0.0054811444 -0.018643435 -0.0387414 -0.08221537 0.10822321 0.0027654732 -0.069406256 -0.10826407 -0.11613978 0.045605976 0.015644683 -0.013236236 0.081324056 -0.0640259 0.11818381 0.15882044 0.045861702 -0.029254587 0.05945642 0.098974794 -0.1809365 -0.19873987 -0.02895584 -0.003841371 -0.06758198 -0.020918792 0.064077504 -0.26449856 -0.055718053 -0.014306609 0.040542446 -0.04799859 0.05664584 0.108329006 -0.031047571 0.09431144 0.0603036 0.1444443 0.024104055 0.09124012 0.0839127 0.111783914 0.75742465 0.05608341 -0.055888686 -0.041332193 -0.0059131887 0.2808208 0.15834606 -0.11393504 -0.125282 0.008603864 -0.040780116 -0.07179192 0.09123206 -0.23771505 0.086932644 -0.100712955 0.11236133 -0.19355452 0.026666358 -0.12080318 0.012179013 -0.07477682 0.21420297 -0.16332345 -0.03655433 -0.14097379 -0.21551172 -0.0033275157 0.013637465 -0.0013334516 -0.052052885 -0.06827741 -0.13561197 -0.118690826 0.020124577 -0.06716425 0.020807898 -0.055260424 0.04863878 -0.09394924 -0.025497027 -0.013271332 -0.03327826 -0.099151835 -0.027862158 0.013959678 -0.19145866 0.038326737 0.04692935 0.07691413 0.081525885 -0.05019284 0.07022852 -0.054959763 0.058049478 -0.08562824 0.0031855842 0.0019268616 0.082979776 -0.076335765 0.043526124 0.019082606 0.0009870125 -0.17733285 -0.014997398 -0.1599959 0.082729 -0.15563259 -0.11537712 -0.034077678 -0.060615018 -0.037270483 0.19914809 0.054681063 -0.14183061 0.0075145913 0.06619913 0.00432857 -0.023687962 0.25931874 0.16398387 0.054848906 -0.040814385 -0.066854686 0.060107764 -0.07723988 0.01748878 0.12435566 0.13489299 0.08352941 0.12982358 -0.14629628 -0.040739182 0.060663216 -0.10802354 -0.0024927878 -0.1265981 -0.089463554 0.082281396 0.11256564 -0.12638801 -0.08593237 0.16453727 -0.061428756 -0.0024861642 0.034091968 0.13852182 0.0408937 0.007962457 -0.09467445 0.13300812 0.022257658 -0.016021188 -0.09624615 -0.007834042 -0.0251427 -0.22583851 0.113933615 0.027317315 0.08563053 0.06940966 -0.05180682 -0.12555198 0.039656423 -0.029034302 -0.0038361438 -0.059761304 -0.0480099 -0.14936276 -0.042971417 -0.08730146 -0.18294494 -0.012575306 -0.19812314 0.093167044 0.09229396 0.07242571 0.08928442 -0.00047700075 0.0045438358 0.023227721 0.14977646 0.07987808 -0.059967257 -0.120484374 -0.11466087 -0.1699825 -0.13320296 0.056267295 -0.14564644 0.1467491 0.06064105 -2.4320629e-05 0.008326472 0.058964863 0.22545396 -0.06541774 0.07948679 0.0692757 0.04566801 -0.050857536 -0.0041166763 0.040584184 0.04487899 0.028613675 0.104535654 -0.06258357 -0.055367567 -0.032030776 -0.052129 0.11469877 0.014250039 -0.09091719 0.05740697 0.037852224 0.007914454 -0.07419627 -0.026056282 0.16570841 0.0649792 0.0385346 -0.0940127 -0.055999734 -0.012180994 0.1467562 0.08930694 0.001453599 0.2819593 0.05776835 0.0063572717 -0.064140156 0.065359324 0.012727574 0.09161992 -0.006878394 0.16396987 -0.06250017 0.048395466 -0.08725445 -0.044787034 0.010713935 -0.13937837 -0.036281493 0.11645889 0.052305482 0.057043415 -0.06714643 -0.015645621 0.06251728 0.24113518 0.03797057 -0.13044976 -0.17203295 0.06565168 -0.09045732 0.09035677 0.015105081 0.0414959 0.051967505 0.10314966 0.123968914 -0.0067669884 -0.11743299 0.031140655 -0.11727434 0.099915035 0.05631867 0.005229287 -0.1567111 -0.092031576 0.07768571 0.153834 -0.19239606 0.15641049 0.09862808 0.16139881 0.165375 0.08088368 -0.009205845 -0.0424108 -0.12741396 0.08597142 0.22722538 0.12522462 -0.041906882 0.0262245 -0.0076373983 0.1460834 0.11972993 0.022523323 0.11657883 -0.017075052 0.06096353 0.08120031 0.022316134 -0.09542517 -0.25220165 0.09857007 0.13278842 0.08647672 0.021153096 0.01752774 -0.08498962 -0.037653085 -0.020842725 -0.02484852 0.031258132 0.0955666 -0.0066549587 -0.30908182 0.03843864 -0.16679783 -0.01979553 0.08308735 -0.251973 0.22678414 -0.041629713 -0.1729344 0.035166234 -0.028288525 0.026051238 -0.055335887 -0.14075515 -0.18697137 -0.031319253 0.056903783 0.047381733 0.20510103 0.2098361 -0.0073995837 0.26201817 -0.022930104 0.005419186 0.18339632 -0.18325314 -0.03960989 -0.113488354 -0.09048028 -0.13664891 0.12931122 -0.14816526 0.16656083 -0.009510496 0.0796422 -0.073637865 -0.0075771487 -0.18365966 -0.018078702 0.14482017 0.06272529 -0.026295299 0.106595196 -0.032344047 0.026580777 0.034172457 0.02303366 -0.011317818 -0.08044732 -0.102826506 -0.052013587 0.08861683 0.17050965 -0.02406275 0.07130164 -0.025052952 -0.18314996 0.038533993 -0.017825633 0.049929578 0.114950836 0.04964621 0.0020198124 -0.022351827 -0.017694904 -0.07514051 -0.032957945 -0.048846103 0.088184066 0.13730691 -0.03701092 -0.18396093 -0.012797377 0.09235995 0.17194921 0.081362784 0.15211798 -0.11314831 0.018880986 -0.017155835 -0.014211331 -0.08622295 -0.01798004 -0.10999823 0.0928262 -0.19315244 0.17479919 0.0940569 0.029851152 0.16340487 0.14374438 -0.19634247 0.018523391 0.10175908 0.05852313 -0.012243342 -0.1179992 -0.102391735 0.095083185 0.17026538 0.06016177 0.14553839 0.019809365 -0.06866707 -0.10025156 -0.024504928 -0.10357054 -0.016496236 -0.16352224 -0.06832651 -0.12712394 0.008690559 0.06298269 0.02050361 -0.040137112 0.04328506 0.20079656 0.21289597 -0.010737775 0.07101774 0.12787868 0.11354752 0.18689483 -0.05090416 0.18032044 -0.12375831 0.14659238 0.078781046 -0.10994188 0.105394125 -0.061585758 -0.11263574 -0.01982894 0.015302103 0.21207236 -0.120701544 -0.14076394 -0.12495021 -0.10228917 0.018495154 0.024251677 -0.05342324 -0.14130618 0.0006368156 -0.02597469 -0.082615755 0.08354481 -0.05209214 0.19512613 0.05723203 -0.07803616 0.016083742 -0.0064720483 0.0031776186 0.006823073 -0.13044436 -0.37506503 0.14220972 0.1543808 -0.19364397 0.023431554 0.15414324 -0.19323687 -0.0047188797 0.15706185 0.06423184 0.029432096 0.00010418714 -0.07532848 -0.09097574 -0.031644333 0.104864776 0.051095124 -0.07371217 -0.062458105 0.056704815 -0.15188368 0.09576144 0.06942331 -0.018291498 0.027048409 0.10238796 0.07408209 0.06463928 -0.014079235 -0.013251213 -0.2358495 0.078296155 0.023190433 0.089260146 -0.21429169 -0.030147426 0.0013489907 0.10655808 -0.17925023 -0.124237426 -0.060119018 0.043880742 -0.007620647 0.18993227 -0.13453744 -0.036531735 -0.010818187 0.24716806 0.07747096 -0.017624447 0.015596664 0.058271218 -0.101406716 2.4985447 -0.064005375 0.17002767 0.021420106 0.002557747 0.098056346 -0.0074773515 -0.06472839 0.00091811403 -0.18156433 0.014498723 0.13602968 0.15220949 -0.12583768 0.052818883 0.057942986 -0.12798327 0.18811618 -0.050726414 0.2030573 0.6838459 0.05487207 0.08586362 0.12838912 -0.17233445 -0.08391265 -0.0005702638 -0.0047238367 0.21904568 0.16073371 -0.1872027 -0.0777278 0.16414487 -0.058338974 -0.16009304 -0.19792067 0.06683025 -0.11067067 0.2170222 0.016623985 0.12760791 -0.007768115 -0.007420192 -0.08861376 -0.04542422 0.08855809 -0.3571214 -0.024985319 -0.082006454 0.19514498 -0.10164668 0.05769162 0.010373145 0.25739488 0.29328158 0.20139378 -0.1409914 -0.11575286 -0.17683372 0.08906187 -0.11854046 -0.14293261 0.0035171653 0.13329113 -0.06457954 -0.04526784 -0.102815665 -0.0081857955 0.111058086 -0.016498094 -0.007355327 -0.15019165 0.037830375 0.07885056 -0.06579141 0.035740163 0.019108031 -0.061874095 -0.19630983 0.085728355 0.10219345 -0.00912919 0.14505753 0.06441785 -0.044996805 0.14684027 0.08303456 -0.13257407 0.00290668 -0.08041875 -0.14224331 0.019565057 0.09370495 -0.065568 0.0058657625 0.061891872 0.045474347 0.034237646 -0.07836614 0.009631562 -0.42899674 -0.025589272 -0.2512846 0.014477047 0.02722069 0.12350263 0.018643504 0.08288488 -0.09071892 0.022935031 -0.00810226 -0.08214562 -0.10497626 0.0031316055 0.20845672 0.16523415 0.09031879 0.036813647 0.04578164 -0.07093386 0.045988917 0.09066594 0.10156632 -0.07779472 0.015543146 0.05619744 -0.05732631 -0.21559545 0.20922741 0.01854163 0.066633165 0.08231957 0.035587434 -0.17219327 -0.1402066 0.062459704 -0.052932244 -0.0035734612 -0.08205717 0.00056146766 0.003525873 -0.0069387048 0.07677134 -0.09045988 -0.017925708 -0.23914802 0.062271487 -0.15515703 0.04265341 -0.10228201 -0.05169147 -0.02650142 -0.00946708 0.13570668 0.08259356 0.00048358765 0.05552012 0.04112864 0.016405875 0.06944233 -0.029772764 -0.19270208 -0.085460655 0.021706922 0.057142776 0.08893766 0.054049075 -0.15467912 -0.13485841 -0.21018462 -0.0075581274 -0.038159914 -0.033991672 -0.21258539 0.079707876 -0.0026196004 -0.03502493 -0.20281753 0.029852288 0.029251538 -0.16221052 0.055427987 -0.10779963 -0.15124592 0.14392692 -0.012518746 0.049228944 -0.12532054 0.08091709 0.0034498002 -0.042955417 -0.01696378 0.02053553 -0.048925094 -0.11127938 0.059577607 0.119009554 -0.051732935 0.025768103 0.047672622 -0.07904821 -0.13943006 -0.09025681 -0.11349486 0.009224364 0.0059019313 0.09669714 0.051899076 -0.10517764 -0.15491553 -0.10384663 0.11251308 -0.07118822 -0.05002287 -0.063738994 0.15660942 0.008468272 0.07691141 0.051895555 0.0998675 -0.09157919 -0.043284927 0.03055909 -0.029130798 -0.08185464 0.18888071 -0.06686755 -0.01806112 -0.087807454 -0.07564645 0.0574317 0.013758987 -0.12337796 0.108915485 0.040082894 0.056554016 -0.07864475 -0.061420042 -0.020879509 0.024235152 -0.033004787 -0.11684692 0.085411176 -0.018315542 0.07118794 0.025471209 0.005116683 0.061796032 -0.18302491 0.03297581 0.01503408 -0.13388939 0.10797303 0.07310339 0.086328015
A 0.05811694 0.008182588 -0.07364829 -0.2491584 0.1631637 -0.046932764 -0.05415324 -0.061409593 -0.11248702 -0.040614717 0.027996209 0.079778254 -0.004738081 0.031944208 0.063031495 -0.108977005 0.007855454 0.0854149 0.011698362 -0.048696615 0.06583844 0.1491189 -0.1030507 -0.090839066 0.1021717 -0.0042568836 -0.07521648 0.0037696385 0.02127842 -0.06724715 -0.007917698 0.09101658 -0.1183878 0.061324466 0.069186255 -0.07500014 0.053211603 0.04735341 -0.090775125 -0.12704171 0.101067916 0.18714166 0.085866936 0.06755692 0.08174492 -0.2086619 0.10937768 -0.092437774 0.047099207 -0.036080666 -0.011021363 -0.025019469 -0.10871535 -0.20093958 -0.009453133 0.01697282 -0.015504235 -0.115632735 -0.057015516 -0.055067938 -0.11692865 -0.075676434 -0.02711609 -0.03499736 -0.06530311 -0.05683122 0.0005229082 0.040315162 0.109378085 -0.094202094 -0.12565759 -0.02131231 -0.07132455 0.042632543 -0.023284452 -0.10571936 -0.09049645 0.009483413 0.1131953 -0.0069380365 0.017031752 0.030483432 0.055453245 0.052276418 0.04971957 -0.10458761 -0.09638029 -0.22033411 0.19941185 -0.065575324 -0.0054543577 -0.053610336 -0.00907646 -0.10793126 -0.03843801 0.12099392 0.29631427 0.0016551833 0.1523189 0.052331924 -0.0075508696 -0.05457501 -0.03242924 -0.00378148 0.07789034 -0.12639269 -0.023196215 -0.052350175 0.017740088 0.056101758 -0.08781776 0.023631692 0.04609456 0.012285362 -0.121635504 -0.028220955 0.020886872 0.17998518 0.01743636 -0.29653552 0.01598907 0.049888935 -0.017401343 0.030704062 0.03978492 -0.0015772048 0.08192477 0.04272545 -0.039439946 -0.052588627 -0.15637219 0.027157322 0.004041783 0.100041606 0.0029826942 -0.023603046 0.038758237 0.08014978 -0.014327025 -0.029004151 -0.030646421 0.07960948 0.02208077 0.0065497714 -0.024416361 0.15755484 -0.1651661 0.1673244 0.01753477 0.026816072 -0.037380632 0.081073985 0.06268951 -0.051874146 0.010110533 -0.016598262 -0.010324146 -0.013804101 -0.105128706 0.06853006 -0.062050886 0.10250735 0.09878903 -0.05555928 0.003967334 0.016599635 -0.069659844 0.027390305 -0.0076749497 -0.0573425 -0.11797672 0.0031962409 -0.060655467 -0.047519594 -0.028356453 0.026123231 -0.08173896 -0.17847796 -0.02557295 0.0030400455 -0.00146514 -0.11852623 0.009753853 -0.066393234 -0.016371395 0.041394614 -0.114458464 0.003675518 0.09841359 0.14807893 0.010576943 -0.0016079675 0.013158042 0.1162819 0.11137322 0.07707565 0.22526543 0.10113341 -0.07130663 0.047594834 -0.08320379 0.081135094 0.0685228 -0.02301253 0.08713075 -0.10022624 -0.081842646 0.16472845 -0.14115565 0.012324233 -0.1864057 0.05689421 -0.1335063 -0.13429914 -0.057598155 -0.061685532 0.06101941 0.19639796 -0.09613684 0.067808464 0.4786917 -0.04991347 -0.009243586 -0.011129444 -0.16460499 0.1909998 0.10629889 0.17033361 0.0075847157 -0.00567909 0.0052560056 -0.04418305 0.010320956 -0.16322032 -0.08553567 0.13001254 -0.24450605 -0.1144302 -0.07793452 -0.035441436 -0.032941755 0.00823512 0.009115565 0.07698719 0.09427057 -0.036294878 -0.08366427 0.084434986 0.1282976 -0.11051955 0.038484596 -0.12472314 0.070440106 0.2130175 0.0064449604 0.040005077 -0.048053794 -0.13526537 0.085105315 0.053059995 -0.104168594 -0.14333269 -0.06831902 0.11408921 0.010557549 0.0281788 -0.04720308 0.03204669 0.033338785 -0.21702798 -0.16469635 0.01304678 -0.07393017 0.0040066266 -0.03353199 0.30245438 -0.2328246 -0.05788701 0.055106774 0.13676324 -0.052000657 -0.07164405 -0.023643147 -0.055517808 -0.009409307 0.23295303 -0.028750096 0.07696121 0.11069014 0.20543057 0.080573775 0.1401329 0.099568546 -0.018009545 -0.10122854 0.029095316 0.19713816 0.08310786 -0.14486103 -0.10122854 -0.042787258 -0.01845235 0.10250207 -0.0076531214 -0.05552801 0.041062295 -0.12180164 0.1163285 -0.0037105638 0.14096008 -0.051116522 -0.065686606 -0.03139517 0.013016074 -0.03545412 0.04606866 -0.13959847 -0.0924114 0.04915393 -0.062371742 0.0283114 -0.007183479 0.013502528 -0.21134524 -0.0038615803 -0.054235145 -0.023695253 0.000839602 0.2051871 0.0052352687 -0.008867496 0.041365206 0.008801191 -0.004690687 -0.095678754 0.0678564 0.03372191 -0.08284561 0.026695682 -0.057565257 0.029094968 0.13061269 0.024085935 0.081313126 0.01060724 0.037805185 -0.079565786 0.07558689 0.1213344 0.025938915 -0.037917968 -0.12042478 -0.06912786 -0.07586872 -0.14741203 -0.03721536 -0.11011738 0.024400106 -0.17887656 0.034879148 0.025621664 -0.05733057 0.0553138 0.18893234 0.013518599 -0.018712806 0.008581272 0.022728425 -0.0035861856 -0.13434827 0.28050172 0.06401936 0.028799737 -0.0031930797 -0.02351778 -0.023635298 -0.029631367 -0.004765228 0.03448291 -0.026518373 -0.030276066 0.04536267 -0.040728863 -0.05759279 0.034397624 -0.06111292 0.07148303 -0.061629094 -0.07483423 -0.0063406406 0.08368074 0.0067467648 -0.011186019 0.117482536 0.016687589 0.096231505 -0.011261339 0.1181148 -0.0151519105 -0.026570486 -0.09612347 0.09995191 -0.09454852 0.0143792415 -0.06440126 0.025236385 -0.0065537305 -0.24209547 0.13248208 0.009683623 -0.013833094 0.071067095 -0.008442084 -0.07453352 0.10781048 -0.06577178 0.080813125 -0.10117176 2.6892269e-05 -0.12341727 -0.076197155 -0.12773167 -0.10611713 -0.07940151 -0.10173025 -0.030048281 0.018190676 0.097462386 0.1405105 0.03636074 0.038845655 0.019453643 0.06346013 0.07249728 -0.17570305 -0.33189493 -0.12856889 -0.07183872 -0.055022746 0.08098526 -0.050525118 -0.0046173893 -0.020137003 0.031788893 0.03145313 -0.017771889 0.07410632 0.12018553 0.038990524 0.044367205 0.07013585 -0.013087924 -0.019506449 0.044938833 0.08837225 0.039108716 0.12785101 -0.006396275 -0.07047247 0.017741274 -0.008617939 0.07339084 0.078300595 -0.0048629814 0.10528476 -0.080517955 -0.06239555 -0.06067792 0.072695754 0.07152747 0.046904806 -0.0393437 -0.08016051 0.013603599 -0.028783258 0.11113379 0.12289531 -0.12379902 0.1370986 0.00096730795 0.029452952 -0.10786459 -0.021535043 -0.084549166 0.06776019 -0.020885112 0.056912597 0.08973711 0.06960899 -0.07563751 -0.058403876 0.065544374 -0.10822779 -0.13826042 0.15722394 0.030871524 0.0021262208 -0.0852438 -0.1574029 0.31802103 0.045339637 -0.039113637 -0.019005483 -0.1069212 -0.046025272 0.02399037 0.043814186 -0.06983414 -0.00868525 -0.011434777 0.06274118 -0.017663445 -0.06072439 -0.07332488 0.083126694 -0.17264467 0.062248074 0.047426213 0.04654371 0.03435697 0.0039920635 0.06744583 -0.039686553 -0.10220862 0.044797488 0.10708171 0.00021140497 0.056062613 -0.0009844973 0.024871977 -0.13164136 -0.08223981 0.12436564 -0.3525099 0.09857654 -0.011676871 -0.12365083 0.12065436 0.10475637 0.05048442 0.0511444 0.008459342 -0.09187849 0.10875296 0.067195565 0.15053529 0.052522056 -0.16065945 0.016801078 -0.014794392 0.07512889 0.08285519 0.032785416 -0.05259009 0.08214254 0.08412123 0.028607462 0.03355461 0.16461575 -0.18715243 -0.19976626 0.117185116 -0.15696388 -0.0996072 0.07278431 -0.23279375 0.05370923 -0.034438472 -0.14967255 -0.02237419 0.07722143 0.071246915 -0.004050099 -0.017999148 -0.06125766 0.03585003 0.050843284 0.09139613 0.016393261 0.13896152 0.015085311 0.0700562 0.0967071 -0.010695703 0.11592458 -0.13968378 -0.027786348 -0.15156186 0.003449838 -0.011894871 0.0830495 -0.060720254 0.07482204 0.09057055 -0.0056173005 -0.12995274 -0.054753475 -0.2433773 -0.06747284 -0.028919794 0.080380164 -0.0015581237 0.06005707 -0.083891004 0.03736479 0.2025112 0.016277067 -0.033185203 -0.055688236 0.013595722 -0.012484975 -0.015845973 0.12979051 -0.038281538 0.015247832 -0.055047378 -0.10383272 0.021121085 -0.14746383 -0.021536093 0.049199447 0.019792818 0.003844098 -0.04968637 0.07587714 -0.02347834 -0.1330456 0.067068666 -0.048679106 0.021241037 -0.0018942985 -0.13052045 0.040767513 0.102086514 0.1890317 0.08214662 0.15771991 -0.12818116 0.09160142 -0.031631313 -0.028526982 -0.102671616 0.042304803 0.083711945 -0.03094603 0.05841442 0.021457925 0.05918616 -0.038395014 0.011479629 0.059792608 -0.113353975 -0.054247078 0.107349776 -0.03020203 -0.020790301 -0.011587269 0.02279945 0.08560636 -0.04793555 0.07030376 0.039349526 -0.022573728 -0.092857115 -0.014868678 0.03899215 0.090310425 0.099923715 -0.133288 0.10307224 -0.050544295 0.119612716 -0.089057975 -0.007222374 -0.051734064 0.08535198 0.12058274 0.07007562 -0.12822987 0.06645789 -0.083402485 0.044767506 0.091071345 0.019199835 0.22329395 0.027306527 0.11417855 -0.028577227 -0.10680005 -0.051267724 -0.071803205 -0.031009132 -0.012054157 0.1154292 0.12513667 0.026119694 -0.018311044 -0.097031936 0.022067001 -0.03339116 -0.0049261763 -0.033765506 -0.07030379 0.087656885 -0.083790526 -0.09192661 -0.0018414801 -0.0028291102 0.008479115 0.07998569 -0.20769137 -0.11769303 -0.011423399 0.0013269638 0.03345932 -0.11004593 -0.5988043 0.11439923 0.041278727 -0.028224971 0.06312429 0.13954388 -0.08701355 0.017991759 0.13011704 0.12661314 -0.0007617422 0.012012241 -0.035866827 -0.10052589 -0.11360297 0.070604846 0.094343334 -0.10007095 -0.20995948 -0.013210964 -0.065697916 0.16209078 0.20994209 -0.09473628 0.08436172 0.00707772 0.14802825 -0.04038554 -0.08045041 0.041616518 -0.13473026 0.04567338 -0.0037395705 0.046693802 0.060118213 -0.029887967 -0.011877229 -0.044198703 -0.047991592 -0.0023156106 -0.10072953 -0.031405926 -0.1536463 0.021184083 -0.07686892 -0.03523838 -0.022604479 0.18654199 0.032792833 0.009324062 -0.025743151 -0.028172223 -0.092136376 4.07826 -0.14372957 0.11046768 -0.011086196 -0.06102984 -0.04007746 0.09178474 0.07876422 0.30159113 -0.052866604 0.055535935 0.05257125 0.04144594 -0.050761994 0.050864052 0.06971327 -0.11427789 0.01093833 -0.0033493356 0.16976024 0.6196513 0.045822084 0.055310525 0.07204672 -0.08077929 -0.07511178 -0.045255 -0.10417447 0.096913114 0.18028773 -0.09431056 0.022691142 0.07947665 -0.17920268 -0.12131783 -0.10192328 0.018588282 -0.038803417 0.082736716 -0.088023394 0.03589568 0.03408528 -0.052867636 -0.039041977 0.0123491185 0.048636507 -0.2826991 -0.025636815 -0.004868126 0.12650558 -0.018831888 -0.06909274 -0.02964684 0.11930342 0.2798005 -0.85388106 -0.0735454 -0.050632913 -0.15348473 -0.05853429 0.1129351 -0.112194285 -0.017776698 0.13328238 -0.03668866 0.048402857 -0.04458554 -0.022145024 0.13871607 -0.08567404 0.018006397 -0.21466254 -0.07382732 0.09239463 0.09033727 0.15617764 -0.0131158 0.01169736 -0.011826477 0.035116285 0.02873852 0.07156871 0.05219947 -0.012980349 -0.11630447 -0.014161524 0.11968386 -0.1375489 -0.03493666 0.03971245 0.0021997476 -0.07773327 0.046489388 -0.07624215 0.006668223 0.05967458 0.037750006 0.03461084 -0.024282705 0.05529486 -0.042350736 -0.13482958 -0.006245954 -0.058948655 -0.06771115 0.08488961 0.03836499 0.16647173 -0.05703341 0.051275715 0.13453208 -0.06415559 -0.12430505 0.063449465 0.22903611 0.1521175 -0.10612989 0.096942425 0.12675539 -0.031113397 0.09181045 0.058924276 0.06346267 0.08533305 -0.046451747 -0.033846527 -0.03127936 -0.008372441 -0.1552205 0.06991262 0.02284138 -0.027356077 0.03766158 -0.08681665 -0.16265543 0.018503806 -0.05904418 -0.024714885 -0.018857315 -0.06527784 0.08237286 0.04492135 0.059413824 0.036628388 -0.02285182 -0.10393328 0.12592332 -0.07958287 -0.04905283 -0.13131966 0.022971876 -0.054590553 -0.07759483 0.07576344 -0.027922938 -0.0077911126 -0.00038752053 -0.0067653623 0.052797575 0.046039514 -0.020262498 -0.06636406 -0.013328309 0.023914976 0.21634507 -0.040422093 0.049854644 0.029852964 -0.015520985 0.002700668 -0.04646931 -0.1538263 0.016606353 -0.100711934 0.09039595 -0.0859458 -0.12948276 -0.07456849 0.05481743 0.021143503 -0.046384398 -0.0056503923 -0.052065223 -0.14006935 0.04838396 -0.0062106876 -0.0006785424 -0.028891101 0.043198373 0.03349824 0.036961373 -0.057968512 -0.039896283 0.118291 -0.20211795 0.044941716 0.07701378 -0.10590329 -0.0922189 0.030538296 0.09468114 -0.04207116 -0.10521323 -0.115702316 0.040201616 0.10145689 0.049960904 0.051871706 -0.04292055 -0.063061535 -0.05991064 -0.04863599 0.15025277 0.01091179 -0.015242972 0.052290756 0.029647505 -0.045427203 0.008499892 0.037176415 -0.0428589 -0.021116333 -0.026255975 0.044564497 -0.13980505 0.025837608 -0.0025227312 0.007845604 0.06442982 -0.13179895 0.07382964 0.13600315 -0.10573012 0.038329277 -0.11751929 -0.009987632 -0.09900661 -0.093250655 -0.049166057 -0.067230895 -0.012264156 -0.15821649 0.081868656 0.030375525 0.19618604 0.07430215 -0.066383034 0.055852517 -0.15427892 0.057405066 -0.15263924 -0.1403419 0.0072325515 -0.028442634 0.09293193
G -0.06560005 0.03897458 -0.064511634 -0.22748777 0.1295116 -0.08464555 -0.0012275648 -0.06588119 -0.046187416 -0.015290012 0.06760842 0.05117892 -0.018767659 0.004882098 0.0040874183 -0.02846903 -0.02262977 0.07569561 -0.001487755 -0.07802846 0.04684991 0.030942298 -0.022232644 0.031608663 -0.10750261 0.05062607 -0.13665868 0.03994507 0.061944574 -0.03408694 -0.09193124 0.08104984 0.016467864 -0.06822868 0.060058177 -0.040275127 -0.023161937 0.0771996 -0.15970182 -0.061971318 0.05267285 0.00951048 0.07786648 0.06363321 -0.01862592 -0.21183835 0.12119292 0.005315641 0.0013820543 0.18879178 0.01566809 -0.020277552 -0.0006378841 -0.049365222 0.016931517 0.044195127 -0.028125321 -0.05554831 -0.07159873 -0.07526652 -0.0770088 -0.015623704 0.05070259 -0.06705458 -0.0334854 0.0023231662 0.014541601 -0.0196316 0.08685974 -0.10035221 -0.21492049 0.05362427 -0.020158457 -0.08878996 0.073842645 -0.02584913 -0.01491028 0.05683276 -0.03816618 0.00979023 -0.015404894 0.03887354 0.07932848 0.050846614 0.09423209 -0.05735099 -0.0015732956 0.02295437 0.17414637 -0.021397788 0.005925675 -0.09826679 0.01724191 -0.059199538 0.02382342 0.12889504 0.23869228 0.055067085 0.07744035 -0.034472357 -0.043100797 -0.00028726406 -0.059663612 0.03648533 -0.019769834 -0.092413366 0.10790391 -0.07477473 -0.06972392 0.07763344 -0.010790708 0.0032013194 0.07619005 0.010793959 -0.09024907 -0.0026711996 0.020509623 0.109718606 -0.027624054 -0.34671524 0.04516258 0.07186454 0.025683686 0.0031898133 0.05208955 0.034092553 0.08574304 0.007813141 -0.18159974 -0.011260034 -0.124273024 -0.0033457044 0.026796494 0.015749644 -0.08170406 0.006521248 0.003922476 0.05943574 -0.029953863 0.027330477 0.035883743 0.037262063 -0.031682417 0.010508478 0.017254315 -0.13794702 -0.15544571 0.088942386 -0.023597214 0.0023798866 -0.034545276 0.07752846 0.030296762 -0.06839286 -0.04324082 -0.043162715 -0.06268926 -0.06461223 -0.10438605 0.055424914 -0.10021284 0.10323857 0.16482909 -0.07215585 0.042819723 0.016487235 -0.057002388 0.05459791 -0.03974846 -0.04211418 -0.24893047 0.0029845696 -0.06285818 0.055943307 0.027057981 -0.010687371 -0.0395987 -0.18992156 -0.036421686 -0.02882683 -0.060283057 -0.0811935 -0.0011193051 0.015269642 -0.08481123 0.09633442 -0.07647993 -0.0065194936 0.10187408 0.033061177 0.022930132 -0.07514416 -0.044089075 0.04869013 0.08215795 0.053461645 0.14176522 0.03302598 -0.052465897 -0.031074643 -0.08503275 0.15234776 0.07917675 -0.034703776 0.04190108 -0.02953377 0.0029575005 0.106428325 -0.15094753 -0.08457923 -0.11681131 0.104177184 -0.080771685 -0.013046116 -0.046127588 -0.014731926 0.13628988 0.15064943 -0.15348648 0.10020832 0.1967253 -0.1042485 0.046940602 -0.12752019 -0.15866879 0.21499632 0.029428955 0.24363229 0.015400992 -0.0066063795 0.013313864 -0.07601639 0.013794691 -0.052921705 -0.1338504 0.11609951 0.036205735 -0.14496246 -0.049116213 -0.018993769 -0.05848869 -0.020727668 -0.026728522 -0.053197317 0.053403016 0.02677871 -0.0708754 0.029096322 0.15181659 -0.064910986 -0.0049391254 0.017210234 -0.08835253 0.14048205 0.0170674 -0.04333871 -0.05404894 -0.1257159 0.08519312 0.022319676 -0.07329353 0.027059747 -0.042744167 0.062301084 0.12414333 0.022907473 -0.01181249 0.099170975 0.03644972 -0.19481733 -0.08738256 0.04427376 -0.019268291 0.017088853 -0.039669823 0.014731844 -0.20485051 -0.113707945 0.06774233 0.0865782 -0.08828886 0.003802181 0.020172192 -0.006464361 0.11158353 0.106091194 0.041912768 0.107216835 0.07578485 0.19206445 0.090122595 0.17247406 0.11893505 0.042174578 -0.046464708 -0.018345917 0.23200683 0.14405692 -0.12034521 -0.1510498 -0.019697847 0.0018677171 -0.02205016 0.0018222991 -0.09342385 -0.034678303 -0.024171073 0.111157775 0.005655057 -0.00987852 -0.11842134 -0.022614561 -0.053546004 0.085153304 -0.21799363 -0.012342575 -0.06254329 -0.07489471 0.048206616 -0.007218518 -0.05651097 0.013455423 -0.05156522 -0.19374421 -0.08007189 0.011854509 -0.10651188 0.029148407 0.13026288 0.022349643 -0.07555421 0.020190572 0.056404058 -0.017188743 -0.09393601 0.045933794 -0.036483753 -0.11239251 0.035786577 -0.12169442 0.031991318 0.09680594 0.048999984 0.04069383 0.025820011 0.061464287 -0.055097997 0.029563561 0.06352458 0.08441801 -0.03452936 -0.04522434 -0.114989154 -0.0226226 -0.11840822 -0.043271814 -0.001983797 0.031111298 -0.18706022 -0.042899862 0.019114492 -0.033623945 0.0101285465 0.0794986 0.085093684 -0.07822131 -0.040975686 -0.007051755 -0.0046843556 -0.020325838 0.26035652 0.053890333 0.06413033 -0.059496097 -0.019580279 0.038916674 -0.03878365 0.0131106265 0.07292381 0.083436124 0.09770046 0.106833555 -0.07549979 -0.040710587 0.09574387 -0.10955973 0.018074943 -0.013790099 -0.032503277 0.02770484 0.110783614 -0.078860946 -0.049190696 0.18629032 -0.05360315 0.10568054 -0.0010019696 0.15072668 -0.030378845 0.028724136 -0.06742182 0.062033873 -0.09938601 0.053738315 -0.024839392 0.021160439 -0.08198962 -0.1625583 0.09930398 -0.0060007805 0.10439731 0.03217816 0.030876173 -0.08345677 0.033983905 -0.027569776 0.031770337 -0.031342942 0.0010220528 -0.21262567 -0.041191768 -0.04053213 -0.13575484 -0.0026419836 -0.06780537 0.018711409 -0.012898526 0.04596932 0.12872 0.036588788 0.0028795402 0.060532566 -0.0018186403 0.048398077 -0.12355011 -0.167507 -0.09163314 -0.11721961 -0.0753799 0.07349333 -0.06251115 0.10639708 0.02007509 0.04530319 0.012754949 -0.028399456 0.045640964 0.12189049 0.0176648 0.021820044 0.012630267 -0.026090298 0.074697554 0.03797741 0.03917263 -0.0036373904 0.08003965 0.0256015 -0.00015236562 0.077008195 -0.007370765 -0.02700741 0.04547159 -0.07773488 0.07850759 -0.09709391 -0.046457812 0.0039148545 0.088557824 0.05736667 -0.005376514 -0.072010025 -0.068545274 0.032505415 -0.04720416 0.06968881 0.07284629 -0.046112567 0.15923546 0.02913308 -0.005295905 -0.11832002 0.028792541 -0.04992419 0.03669014 0.008256606 0.11487865 0.09571818 0.04411562 -0.048431575 -0.13275293 0.06686059 -0.09883633 -0.054258835 0.09378443 0.08866486 -0.0032718363 -0.07659976 0.009818015 0.24685681 0.09157547 -0.0007423598 -0.13296494 -0.06794768 0.10644721 0.014303655 0.045791037 0.016742416 0.041092813 -0.012444765 0.048877127 0.0034515178 -0.02191506 -0.08942489 0.1436921 -0.14943206 0.031535737 0.07381474 0.019208439 -0.032764915 -0.039450828 0.05880267 0.0065466803 -0.10691562 0.05119172 0.057483424 0.006130141 0.0722643 0.09555958 0.031423207 -0.060650684 -0.09422511 0.14396727 0.23078288 0.102659985 0.029028976 -0.09438571 0.11768147 0.030113187 0.03467968 0.06302931 0.12045085 -0.069766596 0.06740625 0.028763643 0.025397295 0.041969825 -0.061034963 0.096754014 0.043404125 0.11062458 0.042445187 0.045917254 -0.049165066 0.053597067 0.016466709 -0.044519506 -0.022491708 0.15463679 -0.09184877 -0.19231632 0.090302184 -0.16756876 0.01663896 0.016872533 -0.18115796 0.079237685 -0.076807044 -0.041822042 0.06598402 0.08168152 0.0012315484 -0.025463711 -0.03401786 -0.04268285 0.008954336 0.006347235 0.150207 0.0020248303 0.17297181 0.029310836 0.1645815 0.04260829 -0.017937751 0.07990001 -0.14253134 -0.02485385 -0.07833335 -0.06536537 -0.07606016 0.021985935 -0.11400949 0.07231263 0.04715986 -0.003339743 -0.055552717 -0.0193429 -0.13578969 -0.12709579 0.0059614605 0.07521268 -0.01812475 0.06617578 -0.09082571 -0.026093323 0.037358135 -0.040062904 -0.028755281 -0.080637835 -0.052521866 -0.10792586 0.009992997 0.08243173 -0.024184505 0.068074584 -0.0069010286 -0.07563965 0.052208874 -0.111599594 0.005225304 0.14898907 0.011711868 0.033391062 -0.04912926 -0.061413623 -0.08941423 -0.13350002 0.052720804 0.011555783 0.05210941 -0.035153728 -0.10414758 0.025237761 0.107821 0.07333268 0.079707496 0.100032456 -0.10346568 0.061742928 0.013826827 0.016532624 0.033972718 0.016774887 0.010686567 0.08370785 -0.0068062125 0.24305959 0.12617257 -0.07873992 0.054486357 0.102524616 -0.15400757 -0.07687435 0.116203345 0.015362604 -0.06261699 -0.0024946409 -0.050261293 0.05044206 -0.025356624 -0.028782556 0.038655877 -0.0006487165 -0.17349915 -0.077108 -0.017160276 -0.06138526 0.05066665 -0.07196184 -0.009920599 -0.04561573 0.03176271 -0.003302767 -0.060170244 0.003189219 0.0007876459 0.15283352 0.052380547 -0.0756164 0.11031429 0.015622634 0.07417242 0.14501709 -0.052231632 0.16855046 -0.09834383 0.04393658 -0.027587384 -0.052926805 0.053612802 -0.07804092 -0.046753827 -0.0036641934 0.070920944 0.09148889 -0.06977907 -0.054588284 -0.065845005 -0.021103337 -0.022055453 -0.044582758 -0.025861613 -0.03131509 -0.043414418 -0.076281056 -0.03101218 0.047302872 0.08397071 0.0693722 0.11290559 -0.06905414 -0.012048006 -0.05473098 -0.043757383 0.04997074 -0.1311139 -0.52806026 0.024989003 0.09666946 -0.11730857 0.015471085 0.17580028 -0.08385522 -0.10668817 0.064911254 0.0964916 -0.068607 0.034585375 -0.07055907 -0.0852837 -0.018812353 0.073896736 0.038493276 -0.0344322 -0.13818724 0.017616818 -0.0318553 0.091474794 0.11869151 -0.050209165 0.03511324 -0.036976703 0.036376882 0.012646508 -0.062481746 -0.039102055 -0.1060259 0.08554177 0.04061917 0.041961383 -0.04512944 -0.061073005 -0.07784185 0.11437534 -0.10536112 -0.1298229 -0.0051495074 -0.032167725 -0.058746833 0.11023333 -0.08885437 0.029108409 -0.022378195 0.18625866 0.020575643 0.025968377 -0.017581716 0.061111785 -0.056118894 3.0739632 -0.11500149 0.12434523 -0.015617639 0.039212722 0.017180225 0.13203564 0.094788834 0.059687033 -0.12090263 0.010944899 0.05593023 0.027866416 -0.11507054 0.12494349 0.012228188 -0.017481413 0.096411325 0.019849496 0.19711994 0.51120186 0.031226046 0.037936263 0.05294578 -0.15869735 -0.045275867 -0.059844546 -0.10233157 0.09076051 0.11835497 -0.20551014 -0.03321234 0.109323055 -0.09972297 -0.13799857 -0.17149872 0.06528632 -0.1025243 0.19136299 0.0011927934 0.08806915 0.0017364416 0.0072303186 -0.051991668 -0.04512731 0.11191437 -0.26719216 -0.092940286 -0.015339316 0.15427205 -0.05443745 -0.04392447 -0.002315317 0.1534905 0.19340523 0.002857932 -0.056259774 -0.105490565 -0.17847455 0.0036728235 -0.008442839 -0.17281991 -0.05373864 0.12716523 0.035378657 0.03315355 0.013699806 -0.019873323 0.14970413 -0.038873013 0.025437543 -0.2694967 0.0009945191 0.074359596 -0.045520823 0.12144966 0.007539295 -0.014760189 -0.08207477 0.08421576 0.045536846 0.0625621 -0.021040687 -0.010357257 -0.04564208 -0.014577809 0.12849195 -0.088603444 -0.02603186 -0.012107812 -0.009455995 0.00744821 0.07205874 -0.03876822 0.053524498 0.0030408327 0.0577608 -0.0036283203 -0.014806892 -0.0017130328 -0.24095365 -0.0990089 -0.051660087 -0.026526524 -0.02837209 0.067675225 0.10613879 0.09690723 -0.077883475 0.110613406 -0.010154749 -0.071249105 -0.11680895 0.039718915 0.17149888 0.11485849 0.11262675 0.071540974 0.07235631 0.012474891 0.07333373 0.034695745 0.0048603644 0.006470451 0.0022528376 -0.037082247 0.0044752196 -0.04057445 0.0570595 0.02746674 0.06262008 0.08859793 0.01954899 -0.11080591 -0.07173364 -0.004045021 0.0006792173 0.012862141 -0.003717721 -0.04103822 -0.00081978977 0.052229382 0.010382481 0.04638637 -0.007651087 -0.18505993 0.061084192 -0.09700126 -0.044816837 -0.13261887 -0.03093239 -0.034374718 0.024663609 0.11213278 0.019275198 5.4308393e-06 0.025550354 -0.004076557 0.024582556 0.049529057 -0.00055718364 -0.07648703 -0.014658397 0.039806977 0.1066712 0.0557121 -0.040681537 -0.082086146 0.050744902 0.0094225425 0.0084421905 0.010843575 -0.0039208625 -0.17343245 0.03740853 -0.07428605 -0.039188363 -0.05129039 0.03200124 -0.011322487 -0.040988356 0.06137662 -0.08687351 -0.11023744 -0.01006955 -0.008087609 0.049988713 -0.09554819 0.018378265 -0.014494057 -0.0132357115 0.013179867 -0.06870199 -0.06530212 -0.14455138 0.00246905 0.096880555 -0.09684364 -0.049380597 0.08849499 -0.0022124054 0.0025570046 -0.023305496 -0.19363333 0.038700238 0.022959944 0.11823026 -0.0046658465 -0.0048631164 -0.09010206 -0.053913876 0.045565337 0.07881228 -0.05646555 -0.015861768 0.034838185 0.004945656 -0.084248625 0.0008433684 0.12883165 -0.10574581 -0.049318444 -0.032873377 0.012439796 -0.17186874 0.07431497 -0.03689256 0.01040354 -0.02387569 -0.030551791 0.043465167 0.11062191 -0.12312687 0.04274893 -0.013817191 0.07372377 -0.09537419 -0.08461132 0.007902445 -0.024765309 0.020433847 -0.08666915 0.034138683 -0.042097792 0.13977244 0.087552406 -0.022237882 0.061613247 -0.19711988 0.047919303 0.014716816 -0.07456488 0.04065828 -0.0775436 0.099345855
V 0.17853568 0.19444408 0.030919636 -0.23884341 0.16277486 0.023484008 -0.07943968 0.0343947 -0.12370131 -0.18043505 0.022714607 -0.002617762 0.003435974 0.19845453 0.070991255 -0.12862793 -0.04026822 0.09945893 -0.053579487 -0.1518554 0.11999643 0.03107534 -0.0058488483 -0.13847947 -0.18803771 -0.05400351 0.11635623 -0.011628327 0.093425676 -0.030545928 -0.029106092 0.2236184 -0.22420093 -0.076918714 0.0718995 -0.027906213 0.049031083 0.00038657838 -0.16035837 -0.15749615 0.15937123 0.16323358 0.15350537 -0.030314835 0.002360486 -0.25307456 0.2464434 0.040854897 0.10090576 -0.12189241 -0.1010467 -0.119474754 -0.0018791833 -0.07134125 -0.024313578 -0.018591518 0.07239626 -0.15621057 -0.09810516 0.05206337 -0.12464176 -0.16622366 0.18473 -0.0029341553 -0.11017841 0.07145709 0.13042115 -0.0004171602 0.13796167 -0.07431508 -0.044193577 -0.015101995 -0.0856829 -0.04996985 0.15123133 -0.08614118 -0.14420377 -0.041562796 0.18585783 0.019318936 -0.0019059324 0.073339246 -0.06562285 0.09491569 0.0277333 -0.21015978 -0.05537418 -0.243308 0.26603514 -0.09770498 -0.068288475 -0.0412119 0.048484795 -0.22648829 -0.112470075 0.06066033 0.24495618 -0.041352883 0.25491223 0.062306218 -0.08532387 -0.16114654 -0.06460208 0.17070459 0.03362619 -0.1978477 -0.1956946 -0.08755152 0.00935335 0.12640983 -0.05580956 0.023785003 -0.10449621 0.08050727 -0.12963863 -0.12509371 0.07286683 0.23350008 0.0028202182 -0.35052696 0.055480774 0.07509509 0.029924924 0.14898057 0.019877223 -0.007306356 0.20837198 -0.002633765 -0.02311826 -0.08461733 -0.14204308 0.12089497 0.048412573 0.16288808 0.072608046 0.07679128 -0.039208367 0.05736285 -0.047903005 0.014048285 -0.15107799 0.029969044 0.10663824 -0.14402354 0.104219615 0.112236135 -0.21503842 0.20184894 0.035338916 -0.022602769 0.07337517 -0.004234965 0.043920152 0.026359554 -0.024598802 -0.033674166 0.009074865 -0.0058315145 -0.0900381 0.18075587 -0.06790891 0.122971 0.15555473 -0.06655938 0.09597183 -0.02266376 -0.066273 -0.028872028 0.028135413 -0.11558537 -0.17474085 -0.12520269 -0.11434534 -0.018759392 -0.04161515 0.05677883 0.00387903 -0.22171105 0.024857132 0.091569506 0.008830157 -0.1500648 0.019959293 -0.23760244 0.10477642 0.036934756 -0.12644573 0.116082534 -0.02272458 0.004735907 0.00081511424 0.024444861 0.05185469 0.036630623 0.049813543 0.08852526 0.23586133 0.025331538 -0.029112205 -0.08449311 -0.11048131 -0.13344733 0.07621194 0.011110488 0.15881583 0.049375772 -0.027363336 0.21209283 -0.23849846 0.031491816 -0.08400833 0.030480608 -0.09114279 -0.053865675 -0.21991253 -0.072084405 0.08358127 0.14874947 0.03666999 -0.013690762 0.39642 0.013466339 0.05763749 0.017667094 -0.09806497 0.24628243 0.1466652 0.25324252 -0.047780164 -0.059103686 -0.010086012 0.012230391 0.06560157 -0.13009281 -0.015702596 0.08238639 -0.3390252 -0.02581183 -0.010937354 0.016524926 0.03643275 0.08279915 0.1159305 0.07215817 0.1696974 -0.036659613 -0.13833207 0.12621047 0.10797127 -0.15297045 -0.049629122 -0.18551196 0.028674008 0.06946448 -0.09587155 0.08229002 -0.023178479 -0.03967168 0.1279282 0.009469135 -0.22194386 -0.19660746 -0.12774561 0.026873792 -0.03244723 0.08316809 -0.07854736 -0.054057058 0.07641763 -0.09926759 -0.2042069 0.03850088 0.0036918842 -0.040675376 -0.04069531 0.1936261 -0.2005109 -0.048207022 0.04609912 0.055517424 -0.082878545 -0.1428863 -0.030852124 -0.10357161 -0.05478221 0.39011884 -0.048819304 0.017882062 0.059489757 0.10166641 -0.051217485 0.44916263 0.007974208 0.08767917 -0.16323774 0.016197477 0.058652002 -0.07950272 -0.26948097 -0.18553561 0.08007357 0.050456583 0.066312805 0.028739586 -0.12975776 0.049029272 -0.12148325 0.099702895 -0.017075107 0.1314769 -0.0448527 0.048283324 -0.0022733991 -0.01015717 -0.046391126 -0.0339443 -0.0006429047 -0.0968476 -0.07436133 -0.096791714 0.08274141 -0.05480472 0.13693239 -0.16608556 -0.0024434128 -0.024941724 0.07879319 -0.061548624 0.02382304 0.17764588 -0.106578976 0.10156061 0.082412705 -0.08161099 -0.07856669 0.18667404 0.18440492 -0.11185689 -0.09226371 -0.0335945 0.0503708 0.17727345 -0.12667905 0.20028885 -0.033424735 -0.017468777 -0.08969556 -4.251817e-05 0.034661703 -0.016780078 -0.05322284 -0.10284364 -0.08849181 -0.18152724 -0.18102907 0.005235355 -0.13392536 -0.007979609 -0.16191433 0.15041247 0.03464194 -0.11920431 -0.031969085 0.1742651 0.022901258 -0.013876857 0.16665891 0.19164671 -0.011610961 -0.09009564 0.23322399 0.0042992365 -0.035061885 0.09711286 -0.19234061 -0.027531944 -0.09879996 0.112734355 -0.03288933 0.003964543 0.032733716 -0.08437141 -0.0822462 -0.11837942 0.03148376 -0.09697574 0.06858758 0.14548507 -0.09229745 -0.06859911 -0.07240445 0.0015601438 -0.0274031 0.078389466 0.2173057 0.114462696 -0.13734932 0.21426392 0.08644099 -0.0070179612 0.059980594 0.0988767 -0.18962301 0.16877766 -0.08977122 0.11136316 0.10592373 -0.24831608 0.1682661 0.035602212 -0.063937575 0.07742244 -0.092228815 -0.08290559 0.11265674 -0.018135177 -0.019857667 -0.14111666 0.12911664 0.041191086 0.021960098 -0.1863 -0.14151695 -0.034510605 -0.12419502 -0.12728855 0.043174054 0.08304594 0.0919495 0.09930577 -0.07948553 0.13656299 0.110798314 0.07945555 0.043040406 -0.4830048 -0.09011837 -0.11960532 -0.12870869 0.0895443 -0.058208242 0.0006857215 0.050536457 -0.030421516 -0.123146825 -0.04827597 0.12103656 0.13845475 0.00381358 -0.074656546 0.093219824 0.069980994 -0.0009115113 0.007812664 0.13724566 -0.051065594 0.21659327 0.0852851 -0.15494597 -0.029517565 0.04636761 0.08804356 0.19278571 0.010763394 0.16300142 0.13371868 0.08881389 -0.1143526 0.012694104 0.20518333 0.12139605 0.04619149 -0.055192113 0.055592462 0.15022352 0.18864502 0.17088965 -0.06414437 -0.0029995202 -0.18191458 0.037401266 -0.098597646 0.17355555 -0.023825731 0.03922466 -0.09562574 0.037806075 0.04180435 0.090437084 -0.13705298 -0.067068085 -0.045096543 -0.011863821 -0.06366325 0.30174494 0.0870662 0.11483798 -0.19626538 -0.12241363 0.69671786 -0.11133563 0.035712782 0.0012624712 -0.009535065 -0.09540502 0.058729302 0.005825402 -0.02041047 0.028969593 0.0046482338 -0.032344256 0.0048361337 -0.1357573 -0.0753614 0.024740595 -0.18571325 0.01704892 0.03628936 0.14785403 0.040453162 0.05786599 -0.031388156 0.051357996 -0.12413107 -0.020482717 0.087959304 0.022504058 0.050440434 0.025869727 0.122155555 -0.029427528 -0.013064402 0.037348617 -0.30002674 -0.022227129 -0.14116277 -0.117495894 0.16939177 0.27294394 0.02496549 0.09471237 0.015409495 -0.08200881 0.10067343 0.15371583 0.2256101 0.046026308 -0.31421417 -0.030588537 -0.02448063 0.08224175 0.13280313 0.025823124 -0.03233438 0.08695969 0.079147816 0.046758153 -0.005320042 0.08265828 -0.20168371 -0.2575153 -0.0878985 -0.049821593 0.043084394 0.05589515 -0.36642644 0.2177252 0.05459058 -0.10355434 -0.15183234 0.14158244 0.037383754 -0.12480821 -0.030702215 -0.028992373 0.1122034 0.00137751 -0.04676115 -0.13977313 0.08796952 -0.05427403 0.10154354 0.20583896 0.041377015 0.16540171 -0.0076984344 -0.031296793 -0.04187695 -0.011154628 -0.07544907 0.049381956 -0.099540964 -0.034138884 -0.045135383 0.02737958 -0.069783255 -0.010057221 -0.20229946 -0.22879337 -0.041667577 0.16336854 0.06033314 0.028493784 -0.17595463 -0.13951114 0.09048368 0.14034767 -0.009938558 0.0024123974 -0.060516242 -0.054247014 0.13899967 0.056740254 -0.1065979 -0.10489491 -0.094773464 -0.080884516 0.09968629 -0.1817146 0.078386635 0.024824722 0.087672845 0.015359896 -0.08299227 0.18481077 -0.07801269 0.05523914 0.009096549 0.020058414 0.14455359 -0.007745493 -0.15689968 0.15716338 0.095904134 0.15184562 0.05713967 0.07012987 -0.15382335 0.13595465 -0.16795716 0.14564599 -0.14164807 0.031138582 0.10958664 -0.032990407 0.030852178 -0.13933606 0.11493289 -0.025927447 -0.024144197 0.013187758 -0.100430235 -0.05488477 0.016675808 0.06616804 -0.07830665 -0.058578137 -0.10086895 0.23684241 -0.10291786 0.11015838 -0.04627534 0.032603268 -0.04737266 -0.03458032 0.08866132 0.14563103 0.17575164 -0.19957784 0.14179178 -0.003889568 0.073804274 0.029831229 -0.008992025 -0.10516268 0.029713405 0.0055560647 0.023281392 -0.07311232 0.07354412 -0.10946802 0.084299766 0.2404332 0.053859323 0.16755736 0.07024729 0.16579308 0.07138445 -0.24407321 -0.059331022 -0.0752317 -0.13122734 0.054277867 0.13889341 0.14582396 0.07170021 0.024480667 -0.14202566 -0.052208543 -0.16756251 0.102284834 -0.02668736 -0.15678285 0.0990625 -0.16059071 -0.059725486 0.06975099 -0.02867387 0.23317043 -0.07258742 -0.094553 -0.2984429 -0.03667551 0.00027233083 -0.08632029 -0.057877064 -0.41130027 0.035853487 -0.05243837 -0.065306075 0.06291533 0.11852103 -0.123962924 0.18449587 0.20365801 0.06632246 -0.0046627084 0.054122496 0.044534545 -0.13136607 0.022955019 -0.061533548 0.0042635696 -0.17198943 -0.30245507 -0.07446184 -0.14165176 0.07938354 0.26107052 -0.10918962 0.26878834 0.12519586 0.088025235 -0.0038333358 -0.15168408 -0.046565123 -0.19806764 0.14190812 0.008098623 0.0008350318 0.060422204 0.061756484 -0.006544451 -0.049184527 -0.08760625 0.054091126 -0.1802257 -0.03417488 -0.21550526 0.08807067 -0.06706507 -0.08866427 -0.0053074923 0.044082932 -0.022355191 0.06959223 -0.03300584 0.12319372 -0.15547606 3.7256415 0.029683398 0.021089 0.06290765 0.036625195 -0.11879051 0.06129337 0.090322964 0.24570984 -0.06921053 0.09097126 -0.037901096 0.01924165 -0.0012507875 0.04481331 0.50181687 -0.1438523 -0.009055203 -0.0029886833 0.20032269 0.5934949 0.16384225 0.068357974 0.10522444 -0.13102049 -0.07703099 -0.017334625 -0.13928257 0.12077512 0.26098496 0.036436595 -0.09024439 -0.07466305 -0.26225805 -0.15670024 0.01660973 -0.10294241 -0.059953813 -0.019893808 0.030004993 0.05326209 -0.14261527 0.11346315 -0.09236309 0.034601137 0.042261425 -0.43393746 -0.03416876 -0.17676014 0.15487497 -0.10123425 -0.03484307 -0.023466278 0.13514036 0.1250909 -1.0140626 0.022602143 -0.031462803 -0.051786028 -0.13812748 0.13918957 -0.11727401 -0.041857194 0.15614054 0.06687065 0.089291185 0.13031368 -0.10339293 0.15694162 -0.1757496 0.029335229 -0.10282168 -0.07468349 0.13403279 -0.05457133 0.09361305 -0.08303251 -0.06901634 0.021957438 0.04952835 -0.07990602 0.043638896 -0.07294624 0.02867645 -0.18931244 -0.03252058 0.09552425 -0.1595174 0.08562992 0.050178304 0.007829693 -0.09228223 0.1083814 -0.05396165 -0.0042035133 -0.08176936 -0.034438618 0.10821033 -0.06917353 0.09697293 0.2422344 -0.027948977 -0.10252227 0.012439248 -0.089132614 0.014887454 -0.072496705 0.1247147 0.013618521 0.001630865 0.079893686 -0.019203873 -0.19672929 0.02778312 0.21337937 0.16507894 -0.17494227 0.028021974 0.121173896 0.032472633 0.095194116 0.09176749 0.050797563 -0.032833934 0.008950487 -0.12730893 0.008006574 -0.14571244 -0.13123423 0.27156845 0.07513063 -0.16679245 0.08496038 -0.08483442 -0.32020858 0.047469694 -0.10065885 -0.031945594 0.054072134 -0.053765956 0.13885908 -0.013140838 0.19025902 -0.019985832 0.008086207 -0.023770576 0.13308148 -0.024481412 -0.11388377 -0.029697558 0.03080957 -0.043030582 -0.12694907 0.06572368 -0.01392747 -0.106416024 -0.01083443 0.08656698 0.0059801387 0.044891328 -0.18477562 0.03922528 -0.025252577 0.0053303284 0.1489303 0.07638542 0.18026969 0.019327037 -0.049038935 0.078561254 -0.043459754 -0.37317142 -0.016584756 -0.05515612 0.056534626 0.07308682 -0.10464997 -0.038385622 -0.014278872 -0.044001013 -0.15544762 -0.10757883 -0.16509074 -0.05280526 0.14859319 -0.015994193 -0.10877851 -0.01936942 0.06545005 0.03977505 0.12022984 -0.1706715 -0.12560472 0.19031806 -0.21149358 -0.029594468 -0.080644295 -0.088304006 -0.06500813 -0.008219344 0.19078484 -0.04009295 -0.12074211 -0.13201863 0.06615054 0.1287862 0.043236244 0.07684937 0.0065224734 0.06965501 -0.055207398 -0.21299502 0.09722848 0.15724403 -0.1415569 0.1435234 0.00050531793 -0.17232606 0.06544443 0.009244575 -0.10379517 -0.030744357 -0.010393986 0.05541029 0.0017851193 0.116009 0.07424526 -0.027208842 0.039980065 -0.03731577 -0.024409413 0.15086699 -0.0798441 0.034339 -0.17582236 0.050208863 -0.014399628 -0.046130255 0.021789482 0.062785655 -0.04104492 -0.014170424 0.08226042 0.07758765 0.10813745 -0.08970597 -0.05918802 -0.081410766 -0.15368795 0.062263288 -0.2241657 -0.20699191 -0.041767977 -0.04580838 0.007843929
E -0.011350547 0.02671499 -0.043922268 -0.23682992 0.15420263 -0.06463091 -0.055913057 -0.07032664 -0.0036002614 -0.011079276 0.0229279 0.096065216 -0.04819242 0.08317038 0.049970094 -0.109733514 -0.054204486 0.08901557 -0.014111396 -0.047842726 0.049793333 0.10195248 -0.10782172 0.0011830403 0.013830506 0.035553593 -0.06606757 0.047402248 0.065838695 -0.073435366 0.01642135 0.07063361 -0.089893475 -0.017687969 0.08111581 -0.047766864 0.022888653 0.085959814 -0.16531731 -0.1280572 0.06883241 0.09461101 0.07091198 0.049467172 0.06505005 -0.31448755 0.10200221 -0.030746758 0.06804857 0.071402 0.056806467 -0.07929376 -0.017825143 -0.19616228 0.0107841855 0.02019064 0.0016896541 -0.09382061 -0.07071315 -0.03246297 -0.15363705 -0.091901876 0.02790415 -0.032342046 -0.06932892 -0.053049993 0.02786934 -0.031686403 0.18218589 -0.09327961 -0.1569101 0.0731882 -0.05190995 -0.033017613 0.024335 -0.030361097 -0.03303589 0.003348549 0.080185406 0.101943135 0.0010956819 0.0488565 0.073735476 0.05079884 0.05894156 -0.047547277 -0.092626765 -0.08570144 0.2460643 -0.024637386 -0.0458157 -0.096837185 -0.015024598 -0.15556404 0.009817437 0.12616655 0.28776458 -0.021453645 0.12209995 0.036246646 -0.058862917 -0.0008208272 -0.12407203 0.039386198 0.012188902 -0.15557574 0.0034017148 -0.07278948 0.0075208517 0.08034256 -0.06877684 0.0407807 0.08097159 0.026553474 -0.15769039 0.021341017 0.07654542 0.18239848 0.04005487 -0.33746994 0.07381894 0.005344446 -0.0032178836 0.03426309 0.053669617 -0.010048049 0.058645085 0.026032362 -0.08865637 0.0070463847 -0.12282451 0.0044489875 0.032426633 0.089619525 -0.05912736 -0.061270844 0.0067557474 0.09451628 -0.01870935 -0.024888692 0.016505202 0.054737583 0.06781604 -0.053046305 0.01193988 0.13242523 -0.2227997 0.14571662 -0.009384223 0.040550314 -0.0040149526 0.044165306 0.05203972 -0.089103766 0.034195855 -0.054982346 -0.02430496 -0.03968926 -0.15091789 0.11884179 -0.09751124 0.11586657 0.16710798 -0.1127152 0.058451783 0.05327363 -0.04563774 0.023096386 -0.04377841 -0.021008752 -0.2386064 -0.04171558 -0.027316155 -0.0028981464 -0.012023287 -0.023744667 -0.013948861 -0.19705786 -0.03777131 0.026290826 -0.043728523 -0.12443567 0.035674628 -0.055621058 -0.09782509 0.074922465 -0.11135456 0.019775992 0.054360893 0.13877901 0.023147346 -0.010979508 -0.033384226 0.1494104 0.13009863 0.027596407 0.21599065 0.10967692 -0.059301548 -0.006562032 -0.14573306 0.105077885 0.095604494 -0.02955551 0.05345769 -0.018108787 -0.07383192 0.15907712 -0.10406253 -0.05336226 -0.16076204 0.10902328 -0.106675714 -0.08519791 -0.06910596 -0.024031753 0.007831135 0.15543975 -0.05563706 0.077358335 0.44461608 -0.045696184 0.06865619 -0.050558638 -0.175797 0.21680719 0.031256016 0.23808806 0.055787276 -0.016816035 -0.015139254 -0.08094159 0.03877326 -0.1327523 -0.10147459 0.13546464 -0.255648 -0.14960617 -0.029146045 -0.055460732 -0.022577858 -0.011085618 0.010152165 0.0133998515 0.08447898 0.054172035 -0.0844881 0.08778177 0.14851624 -0.12123575 -0.013764155 -0.07360426 0.035516143 0.10457236 0.003199646 -0.05573735 -0.03719822 -0.1177065 0.09762836 0.033757504 -0.16421373 -0.078720026 -0.07182549 0.08049554 0.020324066 0.036218036 -0.028807769 0.046754684 0.02298507 -0.18373013 -0.09486941 -0.000863005 -0.0809641 -0.0040335516 -0.052020773 0.15002415 -0.17081729 -0.10180437 0.08159883 0.12769052 -0.039872948 -0.07006566 0.045784887 -0.0385948 -0.03497606 0.19909386 -0.014844327 0.033941846 0.14351694 0.17504483 0.042016678 0.13761012 0.11914851 -0.007450651 -0.05821754 -0.048333883 0.24319495 0.072024405 -0.14595225 -0.17510149 -0.01816849 -0.026493289 0.0999578 -0.053598586 -0.013800908 0.041277323 -0.036119375 0.17688291 -0.0037824092 0.06708288 -0.09134975 -0.019273374 -0.021880306 0.04637915 -0.120655015 -0.04946318 -0.07324466 -0.10994586 0.1150265 -0.033147845 -0.010594894 0.037711985 0.0115402965 -0.22651228 -0.07250838 -0.051503282 -0.08124065 0.066851206 0.24288501 0.06496455 -0.06383269 0.033388726 0.12460922 -0.0050265486 -0.07581888 0.112764485 -0.00495719 -0.07708861 -0.0043553873 -0.071927026 0.037984814 0.20108762 -0.009549731 0.07681368 0.06630026 0.055913683 -0.10476718 0.045123942 0.13931437 0.017437497 -0.09069506 -0.102932654 -0.08681614 -0.066272214 -0.08851418 -0.04808184 -0.08453369 0.03781606 -0.1671027 0.018715145 0.0428136 -0.07795654 0.1276223 0.10052481 0.05166735 -0.06439343 -0.0037546363 0.049900018 -0.00715689 -0.12121304 0.3294028 0.03289446 0.045437735 -0.004928326 -0.0434609 0.03735928 -0.118024714 0.0072458806 0.023247017 0.037027597 0.0043503223 0.004786709 -0.017523343 -0.07376829 0.06455645 -0.036674205 0.02252128 -0.007019649 -0.09502133 0.046896927 0.10533936 -0.019815603 -0.0401154 0.13316518 -0.030232651 0.13465051 0.026663104 0.20322618 -0.005560069 0.0488167 -0.03662223 0.05285215 -0.09807261 0.05757745 -0.04477669 -0.010194375 -0.01412561 -0.2186591 0.11496676 8.434647e-05 0.012864941 0.05268642 0.021199755 -0.019915845 0.060421076 -0.074542284 0.0712002 -0.052253187 -0.0287864 -0.13796195 -0.04799177 -0.09954804 -0.10086788 -0.034285408 -0.114231296 -0.039496675 0.01788185 0.11082747 0.16633043 0.061087977 -0.020442944 0.016115677 0.040185247 0.059504803 -0.09480238 -0.32070655 -0.15399495 -0.11192809 -0.093410745 0.11492929 -0.075556144 0.058761746 0.033153534 0.040215883 0.03537828 -0.032150574 -0.0050257123 0.1515529 0.03257252 0.012928116 0.068957135 -0.014997143 0.004823401 -0.017635833 0.11063827 -0.016106693 0.1697812 -0.02551266 -0.086856395 0.044891935 0.0055437735 0.05173797 0.07755995 -0.030745355 0.059992533 -0.015997408 -0.09736241 -0.02478999 0.10580473 0.066491336 0.046478454 -0.05407168 -0.114217296 -0.0028587373 -0.05835408 0.11044205 0.1320956 -0.036347147 0.10853068 0.017960435 -0.03990638 -0.07902002 0.030363187 -0.0720686 0.05036582 -0.0020360914 0.12989736 0.13232645 0.08076273 -0.087895446 -0.085179985 0.09950254 -0.056880757 -0.04903969 0.10471569 0.058687024 0.005703155 -0.09074987 -0.087070495 0.33248055 0.058462102 -0.0042176386 -0.050811432 -0.08344699 0.032128785 -0.007876328 0.04139204 -0.058282703 0.007294258 0.058475226 0.047677845 -0.0681313 -0.049096033 -0.110791765 0.13308161 -0.1857347 0.049202923 0.0053775646 -0.017537765 -0.023126058 0.032936234 0.09536714 -0.013292957 -0.09087798 -0.012290909 0.091433704 -0.010119517 0.054529022 0.021507347 0.032114577 -0.103602484 -0.10490988 0.14596479 -0.17401627 0.09379176 0.001661601 -0.107939616 0.08863297 0.049469613 0.02300841 0.04299948 0.074471705 -0.04469378 0.09126564 0.10365716 0.11912435 -0.008351653 -0.09793795 0.06193402 -0.0021840907 0.12124905 0.1115033 0.011806349 -0.0193511 0.09213734 0.028366435 -0.017198985 -0.015603803 0.11289011 -0.08970904 -0.1421796 0.07185012 -0.21398957 -0.012843731 0.09162539 -0.27064 0.08747006 -0.09423667 -0.123350404 0.0034917083 0.06672948 0.06207092 -0.046700254 0.010668471 -0.06569789 0.10323456 0.050181236 0.087319486 -0.057216838 0.15131648 0.04748923 0.15066096 0.08511137 -0.009592307 0.12927568 -0.10925315 -0.03649285 -0.090457976 -0.01104634 -0.017490419 0.069981284 -0.07545403 0.06912744 0.03516609 -0.032843407 -0.011995873 -0.043280147 -0.20845836 -0.11866605 -0.0051696594 0.100065924 -0.0135414805 0.046676833 -0.038880497 -0.019054446 0.1387505 0.027791746 -0.038000304 -0.059884105 -0.0025492143 -0.1414275 0.057816282 0.12888175 -0.04937469 0.047292147 -0.030469824 -0.12665623 0.0586689 -0.14932564 -0.021213006 0.10977366 -0.008828438 0.025654033 -0.048714902 0.026162488 -0.02646647 -0.10292326 0.046640582 0.020782249 0.016635586 0.043226 -0.1428073 0.03688311 0.096436344 0.09709876 0.07400834 0.14873706 -0.13004614 0.082017064 -0.01205135 0.042294994 -0.051164214 0.07133293 0.08359068 -0.0027998115 0.023386976 0.09060082 0.08143911 -0.062306996 0.005095777 0.0708074 -0.13027729 -0.06691688 0.06779869 0.0019275572 -0.1418071 -0.04633979 0.0018977614 0.096355796 -0.02031428 0.01791758 0.0133152595 0.029505752 -0.19322069 -0.05130082 0.001491581 -0.002072935 0.13207754 -0.10067149 0.098080724 -0.12771659 0.097518906 -0.041078717 -0.033759143 -0.05290277 0.030179126 0.1811535 0.03373008 -0.105284244 0.11157047 -0.086877495 0.04942773 0.15365289 -0.05235756 0.20807098 -0.01994096 0.13544361 -0.06544831 -0.11657692 -0.037293874 -0.090401486 -0.11346683 0.008818316 0.13510802 0.09092869 0.015812572 -0.034469094 -0.059702743 0.024048915 -0.047429353 0.004529487 -0.049276516 -0.07015081 0.093707085 -0.12354404 -0.007169674 0.060110275 0.040505897 0.037993383 0.058334634 -0.1433029 -0.15325537 -0.06433948 -0.037271023 0.083505936 -0.12748227 -0.555442 0.05174796 0.07304724 -0.029869003 0.05943639 0.1535693 -0.08425233 -0.055323027 0.10392026 0.06910703 -0.029965237 0.010184637 -0.046854913 -0.11536858 -0.07547738 0.074880004 0.044209886 -0.09971169 -0.23784064 -0.020117285 -0.04368253 0.11203359 0.1895195 -0.07942218 0.06886753 0.00078888854 0.07799651 -0.03985671 -0.097840674 -0.06259931 -0.10574214 0.06706449 0.005725233 0.018686473 -0.0038089934 -0.014471736 -0.026824888 0.035857014 -0.06663319 -0.05684175 -0.053543888 -0.00677376 -0.07661382 0.04505421 -0.07182778 0.0063139144 -0.013568273 0.22259612 0.014089717 0.05458628 -0.00784176 0.025869373 -0.117520094 3.7906904 -0.09244118 0.17242378 -0.015578101 0.004268798 0.016452953 0.115829505 0.15965755 0.101236425 -0.06364512 0.035813008 0.023441432 -0.010710694 -0.090835005 0.10783539 0.03471308 -0.07914222 0.06282295 -0.0038654848 0.1978908 0.6240232 0.05443382 0.057397682 0.008068721 -0.117412485 -0.064417705 -0.06621689 -0.06568333 0.08903402 0.17178766 -0.1483942 -0.010481282 0.070415914 -0.17042638 -0.08783231 -0.098844446 0.05525207 -0.16944565 0.15847503 -0.02370858 0.05051768 -0.017420601 -0.014783246 -0.041799866 -0.004827398 0.10381075 -0.3697843 -0.04011427 -0.037671175 0.102671206 -0.03113521 -0.035909254 -0.04068608 0.15777944 0.2105788 -0.6406376 -0.07537481 -0.06953259 -0.1710823 -0.050510302 0.053854283 -0.16816773 -0.055203587 0.1131938 0.0151208425 0.06993013 -0.013979079 -0.097783 0.13999203 -0.120139875 0.0032438044 -0.2805891 -0.08827592 0.0687793 0.010608925 0.13700348 -0.019632401 -0.006667166 -0.028678758 0.028270774 0.093956225 0.079342835 -0.012145129 0.015158588 -0.04947203 -0.041157853 0.09995616 -0.14178906 -0.03200182 0.02124442 -0.022659263 -0.039090738 0.09437123 -0.15003476 0.0038711242 0.03244987 0.023647804 -0.02193424 -0.012917957 0.02451352 -0.09411937 -0.10662369 -0.009586886 -0.0035829123 -0.03227632 0.073123276 0.097906426 0.15109424 -0.08988827 0.11111424 0.07654768 -0.11545111 -0.18880653 0.07423083 0.18241331 0.18478128 0.070090055 0.09030412 0.12888695 0.023984706 0.05944873 0.055903252 0.037219808 0.056784544 -0.016614383 0.004039063 -0.01563921 -0.055782918 -0.09970946 0.06005153 0.03136476 0.02600694 0.038206603 -0.11358827 -0.17471853 -0.011825113 -0.021261705 -0.023883553 0.028589934 -0.03908122 0.049559932 -0.009567191 0.056638747 0.08733498 -0.017226446 -0.19827786 0.103637226 -0.08295343 -0.045485366 -0.16279541 -0.011055999 -0.058224294 0.0010482732 0.104635455 0.019558411 -0.005468422 0.009457551 -0.057599388 0.013586107 0.054122396 -0.06122304 -0.108943515 -0.056286044 -0.030167125 0.14726362 0.047945306 -0.0059637493 -0.030966055 0.006524611 0.030462535 -0.006482888 -0.10711681 0.04516032 -0.08697476 0.12113668 -0.07657838 -0.07913133 -0.046084765 0.019291528 -0.011199041 -0.059396908 -0.014215887 -0.12425651 -0.113944456 0.040503427 0.046440642 0.035327427 -0.05095892 0.029881047 0.07541216 -0.0035025955 -0.046527933 -0.12277454 0.05250035 -0.17791043 0.0060124607 0.0516086 -0.12414904 -0.06156388 0.08895347 0.0132055245 -0.03971843 -0.061935417 -0.15661974 0.05702635 0.04421639 0.069752716 0.07499594 0.01810035 -0.063480206 -0.12455028 -0.04237529 0.08109257 -0.0053918744 -0.06404679 0.06464875 0.052830465 -0.11273115 0.0804925 0.05882535 -0.093401894 0.023440013 -0.025729593 0.037572674 -0.15610619 0.03445347 0.014174626 0.0064501856 -0.024000674 -0.12899436 0.019096492 0.14772698 -0.14880528 -0.014629048 -0.118650846 0.04364546 -0.092549965 -0.0560824 -0.047404625 -0.031964198 -0.0061756014 -0.10744498 0.042934187 0.011996512 0.16943376 0.075727955 -0.052246597 0.04994758 -0.17984018 0.10852696 -0.06806489 -0.10053232 0.07789556 -0.10210428 0.10872129
S -0.16542819 0.047505625 -0.096018694 -0.19404154 0.13523917 -0.065492466 0.026485592 -0.043306794 -0.055830102 -0.014990639 -0.004402894 0.09877917 -0.040972218 0.003828843 0.006559215 -0.05458984 -0.008477895 0.080641985 -0.003959571 -0.02353051 -0.0075261774 -0.001510949 -0.068813056 0.05890687 -0.04320604 0.025854697 -0.13581815 0.07113237 0.012037665 -0.0098054055 -0.03626159 0.029176285 -0.05532248 -0.06881417 0.09269253 -0.06269571 0.01706388 0.09019726 -0.18157935 -0.068211675 0.035463374 0.010011069 0.10484405 0.10597256 0.020654889 -0.24280153 0.107347205 -0.014832484 0.013626276 0.10642387 0.049707927 0.029470447 -0.0106877005 -0.09710982 0.07082217 0.022931242 -0.021244295 -0.07077541 -0.052840363 -0.059905957 -0.089282356 0.0029024724 -0.023344861 -0.048821084 -0.00090515916 0.0028789984 -0.021949975 -0.017680626 0.11009749 -0.111081526 -0.17283514 0.0299834 0.004103535 -0.023602512 0.04805869 -0.039023895 -0.021581784 0.032575402 -0.063068055 0.002773155 -0.03556796 0.0759273 0.07968608 0.033114262 0.046023864 -0.046862416 -0.0026116343 0.024614874 0.18811725 -0.018469026 -0.051156517 -0.11871505 0.033010244 -0.0936146 0.0513799 0.09179545 0.21830103 0.024046274 0.05966306 -0.022734534 -0.004014826 0.004491853 -0.07736163 0.03478394 0.04072566 -0.08451735 0.071404316 -0.0032623124 -0.007807735 0.061768956 -0.011444881 0.030518027 0.08691257 0.022185953 -0.11072997 0.027186753 0.072604544 0.12220022 -0.012861786 -0.3209209 0.043377735 0.0020910862 0.053004753 -0.00503412 0.020032588 -0.007984555 0.04741498 -0.06824625 -0.1784366 0.022916997 -0.11962411 -0.04001527 0.008741627 -0.007458798 -0.021806285 -0.025659269 0.05854777 0.04455787 -0.0138918385 0.015350885 -0.0072003407 0.044763323 -0.026687227 0.04312609 0.0023485932 -0.20553812 -0.22291808 0.08203578 -0.01812033 0.055826064 -0.036454093 0.035940293 0.004109944 -0.06108575 -0.01696085 0.0014430386 -0.04998221 -0.021985661 -0.091365494 0.053276464 -0.10471269 0.064482465 0.10301288 -0.05773 0.028245818 -0.028555559 -0.071966834 0.023997497 0.0023788721 -0.041413315 -0.19911851 0.0032212646 -0.04069343 0.05608041 -0.0439268 -0.009346935 -0.06889306 -0.20414416 -0.034056988 -0.021259492 -0.02349082 -0.064477995 -0.052831106 -0.07721225 -0.038974136 0.044817377 -0.04964688 -0.078075774 0.066789106 0.07425899 0.05310353 -0.024296485 -0.09010252 0.06183589 0.1298648 0.020060368 0.13535723 0.0849135 -0.043328185 -0.02465068 -0.13228658 0.06984534 0.117965065 -0.027178774 0.032987434 -0.05774083 -0.07797562 0.12681283 -0.10001396 -0.0068087275 -0.14528534 0.04174811 -0.14680646 -0.06894175 -0.024869617 0.0021700284 0.048663925 0.12471202 -0.10911458 0.026936527 0.32463098 -0.08534019 0.058262523 -0.08690055 -0.14065948 0.23420076 0.020934377 0.27120093 0.038761273 0.02171928 -0.018322455 -0.07117901 -0.007925585 -0.019113114 -0.11041735 0.11636464 -0.06984952 -0.075719826 -0.028369877 -0.051819094 -0.043619514 -0.0128442105 -0.003894025 -0.014665627 0.053767316 0.029139198 -0.085139394 -0.019383874 0.114883244 -0.09214278 0.004782938 -0.046154123 0.024742471 0.12562595 0.013181115 -0.049469635 -0.067196205 -0.1040142 0.040840544 0.038926437 -0.08486498 -0.020905262 -0.04055677 0.054823026 0.039564427 0.054446433 -0.006117623 0.11831145 0.039762057 -0.18219735 -0.089204006 0.07437636 -0.029353403 0.011281784 -0.04854548 0.15199694 -0.1710055 -0.13477033 0.054335743 0.11231506 -0.06132441 -0.0618509 -0.02239204 -0.030409837 0.0929435 0.11796281 -0.012556507 0.077093095 0.0673984 0.15272127 0.038128644 0.09134079 0.08875476 0.039480306 -0.09667009 -0.009011728 0.27566716 0.14798503 -0.09603331 -0.11882122 -0.041663144 0.002687545 0.06335544 -0.019403098 -0.09172346 -0.011320443 -0.020862201 0.1508511 0.0690375 0.00923583 -0.048411388 -0.06925062 0.018082336 0.03738824 -0.13915338 -0.057455726 -0.03598844 -0.06917268 0.093024105 -0.014508874 -0.034649707 0.033812 0.0048468336 -0.18273878 -0.07633894 0.017265975 -0.09789461 0.041609097 0.21601683 0.03216309 0.009525191 0.0021037352 0.05658168 -0.060076714 -0.11777811 0.118104234 -0.031273775 -0.08891731 0.0054266835 -0.063715294 0.010800798 0.16090079 0.06558248 0.062417064 -0.026887452 0.020019604 -0.08454679 0.016352281 0.1161213 0.06449345 -0.06617722 -0.048219863 -0.09483732 -0.028678734 -0.112639904 -0.03944365 -0.0011439245 0.04243147 -0.19041221 -0.027937215 0.02348142 -0.1038795 0.0066699404 0.043267075 0.13466623 -0.054823652 -0.025339521 0.0153882345 -0.0064221425 0.0015819967 0.25634894 0.004364361 0.038145408 -0.07863436 0.008683844 0.03387032 -0.015960565 0.010376557 0.072558954 0.10804742 0.03332929 0.12508485 0.010795885 -0.03611884 0.09801985 -0.08190477 0.0058993916 -0.052560423 -0.107805185 0.017569657 0.077031046 -0.06267813 -0.08309845 0.18737605 -0.06893769 0.19732517 -0.021573838 0.074258015 0.018948853 0.02061981 -0.071276836 0.03813124 -0.07261671 0.037540775 -0.01599373 -0.004783057 -0.038921073 -0.14315803 0.07047198 -0.06279908 0.07298878 0.005497061 0.0114002125 -0.018418804 0.0067309923 -0.053973913 0.007472977 0.026003418 -0.003769108 -0.17179026 0.0046780426 -0.06612392 -0.09072649 -0.024968851 -0.08281299 0.033701625 0.0082132025 0.036806405 0.14793734 0.073700495 0.05145778 0.059905335 -0.06813057 0.08903104 -0.11726032 -0.11048174 -0.07066762 -0.062387787 -0.020520106 0.09389715 -0.03517824 0.031247491 -0.012679336 0.0615603 0.056949675 -0.02389724 -0.016326092 0.12953866 -0.021475492 0.023428403 0.035968337 -0.030731969 0.05183185 -0.0044306424 0.08187036 -0.0051604477 0.016613444 -0.064339384 -0.061487243 0.06371509 0.048447188 -0.03520056 0.016427899 -0.06795709 0.024199052 -0.11112725 -0.09196813 -0.013490933 0.04454459 0.055761985 -0.041735996 -0.086532004 -0.086109996 0.01578098 -0.04388066 0.07370305 0.095162734 -0.097260885 0.09921652 0.027993761 -0.035561267 -0.11176818 0.009135169 -0.0920281 0.0109510925 0.011342244 0.10559395 0.08654827 0.007989191 -0.07472381 -0.14243591 0.112668656 -0.08634051 -0.07681764 0.089488275 0.05405194 -0.036025666 -0.027708488 -0.09526587 0.28299737 0.07344307 -0.003928057 -0.067343354 -0.08130396 0.10674688 0.016058719 0.01035264 -0.012509195 0.025036909 0.073912404 0.03833065 -0.019830009 -0.041270267 -0.058677856 0.1185429 -0.19967653 0.021306612 0.031771485 0.017954359 -0.021774871 0.007325258 0.07524164 -0.0037629884 -0.056366373 -0.0028396917 0.042827014 -0.012891108 -0.009901792 0.025020763 0.01812 -0.08663951 -0.09111081 0.09058182 0.120199464 0.0988656 0.06584705 -0.14719371 0.1560808 0.047673192 0.06066584 0.09761865 0.05343907 -0.08772234 0.06860833 0.051355988 0.07471905 0.05298064 -0.072690114 0.0959574 0.0022019474 0.100491375 0.0280055 0.04871933 -0.03156743 0.072735764 0.049943127 -0.023192555 -0.008452148 0.14710274 -0.092857115 -0.13271871 0.11214919 -0.18503797 0.02158792 0.024723504 -0.15139666 0.057277016 -0.021992361 -0.038966965 0.016175319 0.059905987 0.013001347 -0.03437967 0.028324006 -0.07351354 0.04351558 0.06699959 0.13055997 -0.012280384 0.13240291 0.015850354 0.17212959 0.07033728 -0.018152203 0.050674364 -0.15344463 0.007787303 -0.06941467 -0.017609203 -0.02608124 0.018842528 -0.09168494 0.055115428 0.05546465 0.0036714629 -0.024581682 -0.014973367 -0.17101774 -0.08059273 -0.016881386 0.07518169 0.018976787 0.06933582 -0.0648158 -0.03543751 0.086464316 -0.032435317 -0.07891694 -0.069491535 -0.008831662 -0.1594896 -0.0044978084 0.08069969 -0.014385576 0.0039569414 -0.031439643 -0.12467472 0.05650533 -0.18654728 0.012949235 0.13263354 0.015865127 0.006972777 -0.029374275 -0.03655576 -0.048212815 -0.1054917 0.060522437 -0.013729475 0.027498733 0.013369373 -0.07469602 0.050089464 0.124699265 0.072332844 0.050675645 0.13629165 -0.08943251 0.03340321 0.036346786 -0.003986815 -0.028331477 0.07257185 0.05225941 0.05883638 0.039665084 0.18564141 0.10223242 -0.08019463 0.028185006 0.06061218 -0.12015142 -0.067225285 0.10906651 -0.015837898 -0.09952413 0.052006274 -0.030447576 0.04152342 -0.040155474 -0.036343407 0.06659772 -0.02174537 -0.16151321 -0.03716144 0.029191041 -0.0020317507 0.08259217 -0.06462294 0.062376387 -0.065942906 0.051658023 -0.09732303 -0.018026879 0.020543167 0.006825872 0.17076062 0.029237336 -0.103277266 0.13035098 -0.04656664 0.050020527 0.1620717 -0.041059773 0.1426564 -0.095277324 0.049797032 -0.002820179 -0.08556534 -0.04034201 -0.029023247 -0.012255541 -0.004023676 0.09991343 0.041251417 -0.008881736 -0.013095259 -0.07467049 0.00084525393 -0.02828059 -0.07920153 -0.0694279 0.036156036 -0.04612508 -0.08993797 -0.06248001 -0.01831911 0.09128301 0.04305923 0.14608711 -0.020836443 -0.08638704 -0.042777933 -0.050646413 0.026438817 -0.13195288 -0.64825195 0.01883627 0.07112371 -0.15985905 0.023636134 0.15087803 -0.07131799 -0.087735265 0.056870114 0.14617094 -0.09643501 -0.0024437495 -0.06914788 -0.11368153 -0.028513284 0.05735866 0.021909932 -0.08001217 -0.15575846 0.03456857 -0.020339211 0.10331023 0.12625818 -0.08927789 0.049432274 -0.055714287 0.03680294 -0.021463845 -0.057749562 -0.038899086 -0.04256918 0.10581568 0.009981677 0.019984582 0.0066575445 -0.04981863 -0.05912526 0.078937575 -0.035144795 -0.13780873 -0.03666863 -0.067891136 -0.046716306 0.10140267 -0.057657972 0.033404365 -0.05089726 0.19163801 0.008811868 0.05088456 -0.0047097094 0.05367213 -0.0053989845 3.5547414 -0.11778868 0.11978212 -0.045635253 0.044875607 0.042135004 0.11162706 0.14256464 0.09418238 -0.04306792 0.027061164 0.05335074 0.009757433 -0.10964634 0.09193376 -0.03588249 0.006024927 0.048975702 0.025779534 0.16692446 0.4590346 0.06422039 0.040445782 0.07408378 -0.1318905 -0.04416791 -0.08723724 -0.13372324 0.07486529 0.1182184 -0.16156697 0.010389761 0.09819708 -0.13207993 -0.07814702 -0.14662303 0.0419237 -0.06957945 0.14012136 -0.0019309523 -0.0005116359 0.019157985 0.0025075355 0.014698954 -0.037952177 0.14974058 -0.26858723 -0.07813494 0.0030081295 0.13778119 0.02151679 -0.03674852 0.03010357 0.16971585 0.23309337 0.08998985 -0.07795954 -0.052685678 -0.15786013 -0.0803265 0.04923934 -0.16556665 -0.032508314 0.118531175 0.01265069 0.07125757 -0.022990037 -0.009892795 0.12603366 -0.024763307 0.0031701105 -0.27672663 -0.0027934534 0.0060365517 -0.030730002 0.12188205 -0.0422871 0.031882837 -0.040109653 0.06358903 0.0637387 0.058749095 -0.018468503 -0.012331994 -0.02483845 -0.032135963 0.12144381 -0.05200003 -0.06712134 -0.0010052562 0.015931476 0.0058278437 0.07161656 -0.04940592 0.060749315 0.009416906 0.042953227 -0.05552358 0.02688632 -0.009869987 -0.18709786 -0.08291604 0.011352206 -0.011442671 -0.10026499 0.073525734 0.08631383 0.10627594 -0.06431532 0.12520778 -0.022502936 -0.044382263 -0.11025873 0.0783454 0.08236286 0.108452596 0.15329976 0.09379878 0.08759259 0.027925033 0.12797192 0.0037229375 0.036890242 0.056553844 -0.04195347 -0.049746383 -0.020055704 0.0054414826 -0.031538002 0.052622925 0.001484925 0.06141997 0.07905896 -0.09051463 -0.07223282 -0.01970354 0.039667767 -0.02903449 0.002042689 -0.046318002 0.023540124 0.021937907 -0.019967034 0.062517494 -0.01029704 -0.09361191 0.08688263 -0.07656328 0.016138528 -0.18842494 -0.07898552 -0.053408798 -0.007728348 0.059623886 0.008260238 0.02678394 0.05056238 0.00790177 -0.004866052 0.089773916 -0.004430084 -0.08078473 -0.0511782 0.06695591 0.07024247 0.036218904 -0.04726174 -0.033371452 0.047939043 0.021514148 0.011411779 -0.01727938 0.016875338 -0.104001604 0.051251348 -0.090142034 -0.062233105 -0.050290365 0.040472645 0.04618783 -0.011132102 0.05829897 -0.083408944 -0.12455008 -0.015237573 -0.037220243 0.028106177 -0.058021132 0.0021785882 -0.0107547585 -0.0403955 -0.0072668386 -0.056183632 0.012706822 -0.13402386 0.05078887 0.10418425 -0.14097472 -0.09547577 0.051975396 0.031429827 -0.022931106 -0.026661456 -0.16495275 0.027151115 0.037278924 0.11684972 0.012699509 0.06365161 -0.07396036 -0.04752184 0.010831111 0.08435821 -0.06482066 -0.008144642 0.038770203 0.041638654 -0.10828145 0.059956383 0.111130305 -0.0967473 -0.023815116 -0.0193969 0.014207574 -0.22801998 -0.014103527 -0.03261802 0.027120352 -0.03861073 -0.03004918 0.11679751 0.075524606 -0.12481284 -0.022865163 -0.04165058 0.047740757 -0.08773716 -0.08920459 -0.030714555 -0.0058155754 0.0065359273 -0.118408404 0.042521324 -0.020022485 0.14887773 0.05368154 -0.076801 0.038797986 -0.15008721 0.07325344 -0.005306694 -0.05478505 0.040044848 -0.07526083 0.04406873
I 0.060972143 -0.012953243 -0.08474781 -0.25911468 0.110108756 -0.05713568 -0.009538452 -0.17724542 -0.048613574 -0.041216157 0.14126949 0.0030811925 -0.032148052 0.026970057 -0.004411144 -0.088466436 -0.07109416 0.08608312 0.033526078 -0.07878463 0.09940415 0.037247926 0.015742881 -0.02469684 -0.26459607 0.0016253123 -0.03301427 0.11233242 0.06504833 0.10398454 -0.16589566 0.15146765 0.061135843 -0.11652077 0.08602747 0.035997637 0.053169705 0.008765315 -0.076248765 -0.11830214 0.12943153 0.12114431 0.109646045 -0.06597786 -0.06682879 -0.1660315 0.039964143 -0.0534484 0.00410852 0.07836104 0.011591321 -0.19108361 -0.016138993 -0.0747549 0.00048576947 0.012852259 -0.008617877 -0.23498757 0.028465461 -0.025767436 -0.039360754 -0.025884803 0.11288593 -0.118709505 -0.08885401 -0.09164154 -0.064053096 0.00957061 0.09820586 -0.06573711 -0.1948727 0.09606343 -0.06316559 -0.20110388 0.07969521 -0.10674443 -0.13039933 0.11610177 -0.08723158 0.081979126 -0.032390285 0.2271783 -0.1100467 0.11384219 0.1432644 -0.06686586 -0.06998141 0.05280923 0.37534136 -0.09018444 0.06531926 -0.16175225 -0.025138645 -0.05711553 -0.0128021445 0.20624325 0.45532852 0.13898134 0.060934912 0.07013878 -0.110563666 0.040998023 0.04510729 0.037069008 -0.0041193976 -0.21194768 -0.056841057 -0.06868871 0.019342337 0.11482025 -0.16752714 -0.027893228 0.083420746 -0.015498907 -0.05090543 0.04204727 0.046632938 0.1982568 -0.004786493 -0.34543276 0.017794862 0.029985968 0.054264005 -0.06399719 0.10769725 0.031172829 0.12794647 -0.023135034 -0.119625024 0.12945396 -0.042786453 0.06170121 0.11682156 0.16389596 -0.10934445 0.10249646 0.09345088 0.060358804 -0.059468187 -0.0019701605 -0.068518825 -0.05893723 -0.08171896 0.023185477 0.049336653 -0.31968048 -0.03897677 0.0910123 -0.005178088 -0.06451174 -0.053736333 0.07467165 0.0033505198 0.0105282385 -0.13067766 -0.09222854 -0.047172457 -0.15685952 -0.1074803 -0.001529063 -0.08336818 0.16139872 0.11790605 -0.077291965 0.0083084395 -0.12046364 -0.0012766528 0.0050684093 -0.08758708 0.066246256 -0.313521 0.121642984 -0.045141745 0.06925154 0.018107915 0.032910183 0.07394369 -0.17500226 0.02584167 -0.03770061 -0.05043524 -0.14459535 0.0020345862 0.0140391635 0.009387085 0.08302212 -0.032438643 0.13753788 0.09152068 0.11655466 -0.030710036 -0.21408041 0.0027262873 0.11340513 0.028259646 0.064913794 0.24661812 0.06364138 -0.112791926 -0.05277274 0.0021829554 0.21341023 0.03452031 0.00409816 0.16861352 -0.04101654 -0.10224378 0.12501918 -0.2944242 -0.16187598 -0.12999246 0.16425504 -0.07136773 -0.08226032 -0.16462283 0.0317791 0.08180623 0.22007808 -0.16663931 0.029506909 0.17838284 0.03162038 -0.0038015933 -0.077195145 -0.07666911 0.07263524 0.032255083 0.24228084 -0.11625217 -0.04868822 -0.037300434 -0.06980339 0.03179027 -0.1322856 -0.12551004 0.12991756 -0.029485872 -0.12779638 -0.107020475 -0.016053826 -0.0707344 -0.053022217 0.038096208 0.019783698 0.16719285 -0.046284217 0.00999676 0.16474886 0.13020252 -0.06289772 0.040321548 -0.018678337 -0.028658843 0.178226 0.050131794 0.056591284 -0.07340394 -0.011493586 0.0741601 -0.006803148 0.020219294 -0.04120448 0.034583792 0.092016004 0.120635286 0.111680806 -0.0025726908 -0.009900591 0.2098329 -0.15629889 -0.21932241 -0.064260855 -0.027928047 -0.044770334 -0.010139304 -0.09671241 -0.3309603 -0.12278487 -0.0071380935 -0.011097642 -0.099086456 -0.07631316 0.0940593 -0.057654712 0.17122446 0.28016338 0.08657099 0.03408905 0.10454012 0.21332593 0.16579495 0.3707067 0.073127046 -0.058973234 -0.05967074 -0.012008015 0.3082266 0.23574738 -0.20396858 -0.10347293 -0.073163755 -0.010661506 0.044429418 -0.013799052 -0.30860353 0.023681864 -0.15438034 0.043652058 -0.19973606 0.04860007 -0.119965725 0.002526319 -0.06949562 0.20138851 -0.03891335 0.033801585 -0.12648913 -0.1730983 -0.07157875 0.02906035 0.024125788 0.021509036 -0.05525469 -0.1260718 -0.084375784 0.028316434 -0.024101116 -0.058517132 0.1436153 0.06426991 -0.08994282 0.019846192 0.046909995 0.054582886 -0.17362134 -0.0021637545 0.086945705 -0.116309576 0.06256243 -0.024556259 0.012538872 0.08173283 0.07273484 0.079742216 -0.0715028 -0.032589033 -0.038596507 0.113717936 0.0389872 0.14052483 -0.052905332 -0.105146706 -0.07810733 -0.09411641 -0.14816149 -0.0536075 -0.17269488 0.11797776 -0.11721167 -0.016888874 0.0386523 -0.060055334 -0.1515629 0.17809041 0.022850897 -0.0855667 0.01978438 0.012655974 0.05052321 -0.050056826 0.27526352 0.09137329 0.0143059995 0.07832721 -0.082927935 0.09753464 -0.158204 0.04976415 0.030305784 -0.0040746727 0.025796985 0.09225899 -0.12794678 -0.08888821 0.090573944 -0.18805408 0.13380502 0.004219714 -0.062395405 0.016857935 0.12538473 -0.03872034 -0.084021844 0.2647681 -0.022204122 0.12718338 0.020694377 0.106300965 0.037077893 0.06929584 -0.08991411 0.09617732 -0.07674592 0.031247012 -0.10953761 0.043412462 -0.0074217743 -0.23276405 0.26995054 -0.056790717 0.07212514 0.041361913 -0.03247333 -0.15517873 0.03998133 -0.048534553 -0.0067623192 0.005600137 -0.04872172 -0.22846101 0.038446113 -0.14655362 -0.17995982 -0.058014937 -0.25227615 -0.01998484 0.21737942 0.049041204 0.077250086 0.060090452 0.00923083 0.009335451 0.120299436 0.043466534 -0.11499493 -0.29626134 -0.108690076 -0.17486206 -0.17942059 0.12471442 -0.089456126 0.077692226 0.09283389 -0.044944473 0.078519836 -0.04770478 0.25162524 -0.020540206 0.07691243 0.066450804 -0.016583119 -0.043210104 0.08222344 0.09106394 0.009377228 0.06307987 0.06284511 -0.0499343 -0.082620375 -0.011579804 -0.020208934 0.07332265 0.12879452 0.009346513 0.09180826 0.0074820765 0.0021463702 -0.11973644 -0.033687484 0.07250744 0.13728882 0.06289422 -0.2139566 -0.01026667 -0.048544217 0.102288365 0.09872061 0.019400978 0.14015412 0.077666774 0.18145595 -0.089089654 -0.0030317523 -0.04990185 0.15702428 0.016161134 0.17818254 -0.073029906 0.053845413 -0.16407734 -0.052936476 0.04334256 -0.19986488 0.02565081 0.08946883 0.008913069 0.017841032 -0.00597439 -0.074899204 0.1823515 0.10196798 0.020521574 -0.17190267 -0.23848605 -0.019470965 -0.014074963 0.076980114 -0.06322538 0.013527589 0.066292234 0.032003336 0.031692628 -0.06417388 -0.15132292 0.1617582 -0.09237288 0.12662542 0.074105024 0.045133907 -0.0841813 -0.05243437 0.081044324 -0.022562388 -0.1715631 0.2009698 0.13436638 0.17306389 0.16590346 0.003109054 -0.06872542 -0.08868367 -0.035632472 0.10845948 0.27249002 0.029235113 -0.094688125 -0.026961505 0.27306467 0.067899175 0.1158975 0.14106809 0.119510144 -0.11516657 -0.054543458 0.12263109 0.09362892 0.0014670553 -0.037543025 0.03961461 0.031058142 0.066588946 -0.05080228 0.022460498 -0.07367105 0.041232754 0.07169891 -0.053762887 0.0124968495 0.13271485 -0.020482045 -0.3393462 0.0819438 -0.16569665 0.032319408 0.060686566 -0.2639327 0.2068889 -0.021915153 -0.107071705 0.064257525 -0.0054989466 0.025224958 -0.12084737 -0.107036464 -0.13470893 0.016911736 0.09154304 0.17686349 -0.12098357 0.31568074 0.026414659 0.2002311 -0.025471063 -0.0371145 0.16160399 -0.12810628 -0.010943639 -0.09019161 -0.023499543 -0.11082179 0.115494065 -0.24902132 0.24196623 0.013143203 0.03294957 -0.08832693 -0.004599502 -0.2975055 -0.010625527 0.001661395 0.13784444 0.002349034 0.08021557 -0.118608095 -0.0014768485 0.1216555 0.017599707 -0.05163119 -0.1484362 -0.036193255 -0.0012023158 0.15696084 0.1745199 -0.015867624 0.027342062 -0.027964367 -0.1225745 0.010256647 -0.033610597 0.057405367 0.0819008 0.014651492 0.00552033 -0.1134288 -0.05377742 -0.07725124 -0.115977876 -0.09221327 0.049874038 0.10599297 -0.087452106 -0.14022857 -0.032287404 0.12624383 0.03883483 -0.0068665524 0.08778491 -0.08726778 0.061821204 -0.005568234 -0.062676 0.015221556 -0.01825639 -0.0075673554 -0.020672476 -0.113314845 0.121199355 0.03381961 -0.09830582 0.17162849 0.047502093 -0.17691469 0.06821862 0.08245204 -0.012387554 -0.086668134 -0.056539167 -0.14352207 0.1328609 0.109650604 0.06696225 0.053280193 0.043325476 -0.062396705 -0.05443855 0.0047241324 -0.11241802 -0.009596081 -0.27932099 -0.023369256 -0.0954027 0.04772072 0.022800425 -0.01394794 0.008241677 0.057801623 0.06516307 0.15985897 -0.17490005 0.0073033227 0.07680946 0.07620063 0.20506902 0.07528428 0.15180768 -0.10897127 0.09821319 -0.023585897 -0.09084615 0.082147606 -0.16102399 -0.040295493 5.085065e-05 0.06660262 0.1173854 -0.12550972 -0.10940882 -0.100258105 -0.07825059 0.067527406 0.0011265727 -0.061282832 -0.10873932 0.009894152 -0.034942783 -0.057874225 0.102900654 -0.03252789 0.20503509 0.10925853 -0.12220596 0.03718329 0.051851287 -0.025887096 0.028854225 -0.2705919 -0.45159337 0.21496509 0.107251555 -0.14224438 0.02241503 0.12250124 -0.124535955 -0.09464795 0.07780687 0.050733823 -0.037334953 -0.041980583 -0.033875484 -0.091030575 0.0099634975 0.07329852 -0.013178488 -0.034684494 -0.14440684 0.03634831 -0.101230405 0.11910788 0.1238186 -0.12916578 0.104957774 0.034898404 0.11637477 0.05440798 -0.19678716 -0.017456204 -0.25916073 0.1164335 0.018347101 0.015756346 -0.091123804 -0.07471924 -0.032606382 0.09541453 -0.25461692 -0.098992944 -0.024741178 0.016311744 -0.10644875 0.1162381 -0.09358951 -0.08187881 0.045805443 0.3111346 0.04398469 0.03512081 0.029194389 -0.022869442 -0.08917193 2.0344076 -0.03362493 0.094881244 0.03302026 -0.01320276 -0.04109471 0.012632127 -0.0741628 -0.053685386 -0.14663856 0.079885505 0.22407936 0.17585665 -0.16487846 0.037974417 0.13582417 -0.10568567 0.16893178 -0.0028936954 0.16133898 0.51613724 0.057548188 0.06656284 0.06261733 -0.21875595 -0.20481089 0.018749706 -0.043455925 0.21140462 0.20720848 -0.31367075 -0.05222142 0.16741483 -0.040446408 -0.17679952 -0.1721305 0.056254055 -0.09612166 0.046586163 -0.06075936 0.11417716 -0.016124671 -0.012119038 0.028996363 -0.074429914 0.08141807 -0.32895118 0.015846621 -0.19965167 0.19466819 -0.14993452 0.042697147 0.031853337 0.28663707 0.25014505 0.06385837 -0.059489522 -0.12924924 -0.19320752 0.12025458 0.0085049635 -0.13296285 0.067314036 0.19382516 0.030083604 0.027997645 -0.09113213 -0.0017699411 0.2376937 -0.088676006 -0.062573485 -0.12012429 -0.006225561 0.09754625 -0.020268794 -0.046447296 0.104570545 -0.20065585 -0.11878316 0.11484903 0.107571796 -0.093685694 0.1179704 -0.02923964 -0.052751474 0.18075202 0.13000116 -0.19516253 0.035689294 -0.02265095 -0.08945275 -0.0063502574 0.06071609 -0.053382833 0.045994062 0.0027062187 0.011108111 0.11896311 0.0051309112 -0.020000787 -0.23267242 -0.04954555 -0.15299244 0.096693516 0.06771021 0.10415102 0.107842825 0.019052163 -0.092695296 0.08326326 -0.025161222 -0.056852806 -0.07212305 -0.02565824 0.13580342 0.06377334 0.18693678 0.063251354 -0.0032917573 -0.04250723 0.0010927536 0.11865226 0.013302319 -0.08720362 0.03578128 0.11337157 0.10542341 -0.2083327 0.11415838 -0.004028051 0.16773136 0.00992776 0.025936482 -0.090950295 -0.16068578 0.04654394 0.033103537 0.08402878 -0.10348208 0.0363326 -0.025071891 0.017676646 0.07014352 0.0010993716 -0.0038806559 -0.12298353 0.07683362 -0.115337275 -0.04337048 -0.14195548 0.034453038 0.0052486877 0.011425164 0.111203335 0.08222818 -0.02367266 0.13189776 0.15934621 0.056665894 0.026602022 -0.05493291 -0.27654862 -0.012081823 0.043227512 0.07378633 0.11381104 0.08066105 -0.10839121 -0.10069871 -0.10877695 0.06004436 -0.07681114 0.03099541 -0.19473743 0.12288456 0.017390361 -0.044976715 -0.15626064 0.09078291 0.041939083 -0.097661786 0.07684328 -0.11524948 -0.2876316 0.18632954 -0.013509563 0.025527999 -0.14691497 0.00017521833 0.0943795 -0.03284593 -0.014328582 0.025116004 -0.06467368 -0.1356506 -0.012004385 0.042959057 -0.053691853 -0.07334897 -0.013819178 -0.008244848 -0.13308008 -0.028672423 -0.35113147 0.15391861 0.03251581 0.03596341 0.051125355 -0.16300078 -0.13835903 -0.11507075 0.09615462 0.04707155 0.02353995 0.038672913 0.22001015 -0.013990238 -0.014355231 0.08870439 0.14588389 -0.06465006 -0.016287528 0.0047638468 0.022162162 -0.14989518 0.087789215 -0.071622156 0.01229357 -0.060854845 -0.02733872 0.0059502083 0.038694467 -0.11021203 0.1431058 -0.054851983 0.114409864 -0.14584865 0.0074161394 -0.06762849 -0.11895721 0.035437256 -0.027089177 0.07501463 0.017187776 0.17825727 0.017970387 -0.10304846 0.12758958 -0.17110817 0.07922532 0.04540826 -0.18046448 0.013418376 0.04802816 0.02119762
K 0.17234567 0.07444029 0.024243163 -0.25831226 0.27311254 -0.0077947536 -0.057772394 0.009534515 -0.11232347 -0.13115314 -0.03946688 0.050264757 0.03400186 0.17684105 0.109518185 -0.17161828 -0.062033296 0.09993694 -0.021243107 -0.044485588 0.10523224 0.11303485 -0.13293456 -0.13524929 0.022953678 -0.052208796 0.016257565 0.014024477 0.08343964 -0.12544787 -0.0018284308 0.18456091 -0.1955866 0.005241204 0.085118815 -0.103615366 0.060355518 0.06424761 -0.10428239 -0.16188198 0.14508903 0.22283396 0.114676125 -0.014431928 0.035951022 -0.2600693 0.22731058 -0.030358601 0.052811146 -0.111740544 -0.036866706 -0.08027094 -0.028543862 -0.19125465 -0.072114825 -0.010022759 0.015159945 -0.15984403 -0.03433433 -0.032598473 -0.1493965 -0.12816808 0.13376792 -0.04483429 -0.08724086 -0.018699773 0.014543996 0.003725032 0.15902074 -0.0716873 -0.08876274 -0.0017478227 -0.03352531 -0.03888783 0.058339216 -0.08696749 -0.18172592 -0.050135545 0.19845839 0.059259076 -0.0044245007 0.03971767 -0.059233274 0.06871119 0.075747885 -0.16935895 -0.11350523 -0.28714097 0.2713952 -0.068080194 -0.003617043 -0.07452378 0.0014570655 -0.20444977 -0.09244474 0.12392564 0.31726375 -0.045846265 0.20191212 0.07108672 -0.057081513 -0.10511458 -0.16017863 0.09945885 0.09170393 -0.18646784 -0.12107131 -0.12807518 0.022224132 0.033626344 -0.06531635 0.06688394 0.037242625 0.10144621 -0.16592151 -0.10453968 0.07230932 0.29753417 0.0056992406 -0.34561497 0.031532176 0.0888384 -0.046957884 0.06435553 0.022429058 -0.03230594 0.04680845 0.14405327 0.0021992621 -0.07015147 -0.18581465 0.08243261 0.11230692 0.17295717 0.03188586 -0.06806301 0.019215368 0.11815967 -0.036402076 -0.031740133 -0.099807054 0.07445039 0.1048525 -0.20867312 0.026695734 0.2398941 -0.18826479 0.20262848 0.03445369 -0.03214512 0.018148 8.618871e-05 0.12518005 -0.10792663 -0.04583984 -0.066466175 0.07156414 -0.0036831214 -0.18079461 0.19140261 -0.09868842 0.15847799 0.109857 -0.07804652 0.007545932 0.05039433 -0.04985963 -0.035253048 -0.006353683 -0.12321432 -0.16663063 -0.038701225 -0.06487644 -0.063683145 -0.04260399 0.050280407 -0.030978825 -0.20447204 -0.0065638293 0.03477503 -0.0050905542 -0.18753761 -0.07926703 -0.18805248 0.0045601516 0.028826244 -0.12829529 0.056347534 -0.0069777337 0.18522762 -0.0022649164 -0.013392444 0.020047227 0.13311113 0.13078578 0.10235129 0.31104088 0.14614882 -0.06509843 -0.009251833 -0.16995892 -0.07733954 0.024607366 0.0016575608 0.14564334 0.025954695 -0.0858869 0.17169128 -0.22018021 0.04431071 -0.17707787 0.10558315 -0.1426782 -0.13653548 -0.16534053 -0.027911484 0.041968066 0.15290034 -0.0039588516 0.0018710658 0.5488089 0.00899482 0.05911162 0.048288308 -0.14002313 0.25382775 0.114723 0.18880822 -0.018451735 -0.08168075 0.004571745 -0.034164403 0.07847106 -0.23283675 -0.052377988 0.13643241 -0.49016598 -0.056119766 -0.04205858 0.02090496 -0.0021942642 0.103386484 0.056710728 0.094929315 0.11254541 -0.018899651 -0.17701973 0.14364965 0.1524527 -0.13604963 -0.044893943 -0.21589924 0.13772587 0.12751025 -0.07222685 0.033373907 -0.048093356 -0.08899805 0.12324213 0.08589033 -0.23465677 -0.14405806 -0.08738265 0.0063493084 0.016525343 0.040378213 -0.09057504 0.002288367 0.041294012 -0.25768286 -0.16172601 -0.021773672 -0.04932902 -0.025223482 -0.0705181 0.12853965 -0.20367815 -0.006576414 0.055747084 0.091834344 -0.07764645 -0.13313709 -0.043821435 -0.069507904 -0.09947862 0.35607892 -0.09760673 0.018138831 0.16682267 0.20568171 0.055840444 0.1927704 0.026190832 -0.03615764 -0.13608071 -0.049935583 0.102520555 -0.03603285 -0.23838395 -0.1265282 0.027195122 -0.0036723108 0.095155396 -0.062400363 -0.045944966 0.010652576 -0.17984684 0.086096324 -0.032190334 0.16643302 -0.02050528 -0.033790153 0.054780588 0.022995826 -0.038989294 0.024794793 -0.044400547 -0.10817985 -0.041604556 -0.09350212 0.05415856 0.047394168 0.14061342 -0.16241013 0.024851227 -0.056293573 -0.013489287 0.006647034 0.3377662 0.09108597 -0.07572792 0.10379991 0.07215738 -0.010469895 -0.054279067 0.1670399 0.1324823 -0.068541594 0.013863881 -0.04013001 0.053107783 0.18342456 -0.051191445 0.19522709 0.038933802 0.045101132 -0.09992518 0.03963627 0.099985495 -0.033768896 -0.09652495 -0.1753084 -0.09436517 -0.15541066 -0.1447456 0.0035610723 -0.12615655 0.07837893 -0.12038781 0.13286585 0.07674823 -0.108161755 0.059640385 0.26173183 0.003705232 0.0042021684 0.16524853 0.07033559 0.02700155 -0.13662498 0.39325956 0.053313073 0.0007127031 0.1565047 -0.1295159 -0.004448191 -0.08133502 0.07319114 -0.03991591 -0.09889773 -0.028412139 0.0033746923 -0.11722798 -0.14019218 0.009494746 -0.046873167 0.11810713 -0.008154748 -0.01766665 -0.03672496 -0.00080362934 0.0074879862 -0.039841026 0.14253801 0.11180791 0.06971419 -0.12492713 0.21081759 -0.022787176 0.01855011 -0.03338225 0.10518872 -0.17521454 0.12542783 -0.021045329 0.13466707 0.09315696 -0.30757856 0.2521777 0.030386582 -0.087939866 0.082909115 -0.069354005 -0.01939501 0.15010126 -0.11266412 0.040472407 -0.08402969 0.04618694 -0.025828058 -0.09158719 -0.22389232 -0.13187893 -0.00204278 -0.096802875 -0.14387904 0.05901431 0.10976711 0.10207 0.0862401 -0.10700673 0.15199746 0.09490091 0.004628356 -0.08805977 -0.5721469 -0.14018129 -0.12792066 -0.11043313 0.073849395 -0.044704903 0.04835714 -0.012853473 3.8187363e-06 -0.030249773 -0.046141643 0.026361652 0.09554836 0.057582974 -0.048608605 0.10843502 0.008409816 -0.11176572 0.03683667 0.088884495 -0.017360475 0.27037323 0.060780793 -0.095089726 0.035486426 0.09266635 0.076062016 0.09707117 0.11499625 0.15747465 0.07003142 -0.0063762157 -0.12129014 0.07431104 0.12912673 0.122947805 -0.0016268499 -0.04951317 0.026211986 0.060102236 0.102333345 0.17657302 -0.11424915 0.09224789 -0.051063012 0.031685762 -0.07125007 -0.004672546 -0.04482047 6.619539e-05 -0.06539833 0.102718756 0.16371566 0.071157195 -0.16044459 -0.019786833 -0.025123129 -0.069113694 -0.0907417 0.11299089 0.036488123 0.1087102 -0.1696998 -0.092083156 0.51675034 -0.022440668 -0.0067949127 0.034871753 -0.05017644 -0.1116014 0.07693879 0.04946615 -0.043169316 0.040685758 -0.05306412 0.023609275 -0.043995276 -0.111684635 -0.123694554 0.05116344 -0.16609098 0.072012246 0.010283017 0.119208075 0.028582513 0.008614159 0.059243586 -0.048660852 -0.117788516 0.028571269 0.1247073 -0.06771601 0.08526772 -0.040773604 0.08930726 -0.08703725 -0.01256549 0.08051758 -0.54027945 0.07051121 -0.06850343 -0.1579307 0.15437056 0.14585215 -0.014058596 0.0059385616 0.043627787 -0.0864629 0.040168267 0.12435476 0.2038671 0.01798653 -0.29207227 0.025538826 -0.007853383 0.14779761 0.14635088 0.06390341 -0.039317943 0.1264234 0.029337537 0.0278311 -0.057263788 0.09801026 -0.21620114 -0.18344934 -0.009721083 -0.11545645 -0.06785747 0.13637775 -0.40033004 0.13566843 -0.06805801 -0.15228136 -0.0984803 0.055080846 0.11049301 -0.0456157 -0.058903124 -0.06200902 0.17636141 -0.002692786 0.016565599 -0.21777374 0.08798616 -0.053305637 0.09847643 0.09165467 -0.022814859 0.17162995 -0.002694092 -0.026650688 -0.16224903 -0.03147641 -0.07484809 0.10532375 -0.043447502 0.073986754 0.0054779532 0.0046715825 -0.114774525 -0.054585457 -0.3211293 -0.11620608 0.031671185 0.12619439 0.04319747 0.050258636 -0.07034986 -0.046340846 0.17396143 0.10630933 0.03258037 -0.010358718 -0.054094933 -0.033627905 0.027983952 0.12428672 -0.113857284 0.03225775 -0.11431319 -0.096787915 0.08623924 -0.18419538 -0.016785638 0.06876542 0.001794347 0.018831417 -0.027215224 0.13893056 -0.039042603 0.015570336 0.0077657555 -0.027946766 0.12412055 0.029527552 -0.17197974 0.13775505 0.099157386 0.13648032 0.11672502 0.13726619 -0.13093415 0.19881432 -0.09724983 0.12916987 -0.15966912 0.060077272 0.12196287 -0.015161721 -0.00052019366 -0.14461356 0.02357949 -0.079771675 -0.0154143665 0.090931475 -0.09198678 -0.055493522 0.037438024 0.02462574 -0.018121213 -0.06557031 -0.01791083 0.15825859 -0.08415076 0.115622506 -0.06741802 0.007439785 -0.100033425 0.046297442 0.024612878 0.17908539 0.21762218 -0.12070022 0.17928906 -0.08153557 0.08036219 -0.01098021 -0.074188866 -0.075612396 0.06637612 0.0023317165 -0.0009631947 -0.13840543 0.08407866 -0.13902473 0.039235026 0.30452454 0.036598153 0.26487124 0.08781328 0.18824625 0.00538946 -0.1769015 -0.1263554 -0.08874663 -0.12753543 0.028921602 0.18751478 0.119768105 0.047194 0.033953264 -0.14130656 -0.05813158 -0.027106598 0.05467638 -0.02557753 -0.1285394 0.15509748 -0.19225699 -0.03086431 0.0641064 -0.00025262072 0.13498153 -0.04105322 -0.20527457 -0.26322484 -0.042917877 -0.011136709 0.037298087 -0.093351215 -0.46607935 0.10368741 -0.025261704 0.12537014 0.13268846 0.124241605 -0.1627668 0.1530071 0.21430796 0.08927262 0.0066093476 0.025392262 0.07040191 -0.11787236 -0.03168483 0.049057964 0.07185399 -0.13470094 -0.26920888 0.034254536 -0.04022698 0.09853174 0.27360868 -0.14836118 0.1734594 0.07620864 0.16291147 -0.045145217 -0.19058998 -0.0009220363 -0.130628 0.075746626 0.016842183 0.021952871 0.05427457 0.019856358 -0.011155171 -0.07964351 -0.09212415 0.053563528 -0.20674486 -0.055684827 -0.21945718 0.051730465 -0.058636617 -0.046526063 0.034861226 0.08042761 0.0069688265 0.066297315 -0.004280717 0.049248423 -0.15229248 3.8292224 -0.024933293 0.10717254 0.07095359 0.0036558276 -0.13314295 0.09072496 0.1497667 0.30736473 -0.0189064 0.13089466 -0.037635487 0.018288486 -0.0060211965 0.06088195 0.27943292 -0.10398401 -0.012937795 0.029729819 0.18725024 0.770072 0.14907368 0.09534197 0.035696857 -0.11123593 -0.06201329 -0.01513003 -0.074145995 0.099900626 0.2537358 -0.04887802 -0.06830677 0.017507011 -0.24336353 -0.14128894 -0.05758793 -0.09937623 -0.10882016 0.014377844 -0.10558049 0.07522997 -0.06991594 0.023348464 -0.04853119 0.027536413 0.009104892 -0.3124347 -0.05982587 -0.088619284 0.06938886 -0.11245899 0.065475054 -0.06675526 0.12766308 0.16995345 -1.2996621 0.061022166 -0.04255737 -0.102846995 -0.10538149 0.19714543 -0.11138139 -0.03287418 0.15215297 0.024579737 0.025097588 0.016787421 -0.046697814 0.22709918 -0.20200455 -0.037384406 -0.19071935 -0.13425276 0.18258841 0.083683476 0.095234536 -0.053863242 -0.046720073 0.009901383 0.053111065 -0.0506362 0.03270917 -0.0068853674 0.054117672 -0.16549739 0.019884685 0.08087282 -0.22710072 -0.014686855 0.065500274 0.020498507 -0.14514802 0.07187118 -0.13811064 -0.017582944 0.030809171 0.067472115 0.039323855 -0.04461891 0.07934274 0.13105229 -0.11052095 0.003788996 -0.07550888 -0.06883427 0.057401292 -0.068618216 0.19089434 -0.020060694 0.0074561485 0.17222035 -0.06947552 -0.20602114 0.08182265 0.28526846 0.20878364 -0.14173569 0.087824196 0.15193082 -0.013129805 0.08168834 0.110045776 0.029429255 -0.0057653897 -0.028755361 -0.04673798 0.03471363 -0.12144868 -0.21867326 0.20481147 0.036545113 -0.07786604 0.015421091 -0.08849571 -0.324097 0.09430386 -0.09177191 -0.035320748 0.06813424 -0.032863885 0.1322509 -0.01844954 0.16957085 0.0010601989 -0.070489235 -0.032322355 0.14059414 -0.10245841 -0.07936208 -0.09129619 0.099804565 -0.037944075 -0.09923745 0.07428409 0.030670555 -0.086882524 -0.031350467 -0.011622462 0.06371508 0.05808959 -0.1766062 -0.06023605 -0.018056802 -0.042405635 0.18224144 0.029079527 0.12042326 0.01596483 -0.060935363 0.05945624 -0.031624503 -0.38897014 0.019590052 -0.091714725 0.14862937 -0.008657318 -0.15281737 -0.065604754 0.001754188 -0.06700131 -0.14816914 -0.07210858 -0.11200344 -0.062412806 0.16046874 0.026994022 -0.053016186 -0.033509675 0.07733794 0.04625739 0.14974907 -0.08248059 -0.17434844 0.14841078 -0.2059224 -0.02171329 -0.053939313 -0.05386323 -0.04491796 0.080899686 0.110638574 -0.05378904 -0.15092613 -0.18177824 0.07337874 0.15746893 0.057157688 0.11601406 -0.077321336 0.050901834 -0.1323488 -0.19989477 0.14162838 0.057087157 -0.056655962 0.13530856 0.0065374295 -0.11439838 0.009391161 0.010740813 -0.019385079 -0.053799037 -0.08888248 0.08657834 -0.11456247 0.077597685 0.08290292 -0.015341681 0.0496279 -0.16720435 0.023807315 0.15407881 -0.12841707 0.018122967 -0.12620167 0.016318426 -0.00666636 -0.055390235 -0.1058313 -0.047327846 0.018552966 -0.107891686 0.06706173 0.08501286 0.2503536 -0.038114876 -0.054114763 0.015443786 -0.099427514 0.08917478 -0.21673504 -0.16116007 -0.022079565 -0.07482852 0.096155725
